{"learner":{"attributes":{},"feature_names":["mean_grey","area_ratio","vgg_0","vgg_1","vgg_2","vgg_3","vgg_4","vgg_5","vgg_6","vgg_7","vgg_8","vgg_9","vgg_10","vgg_11","vgg_12","vgg_13","vgg_14","vgg_15","vgg_16","vgg_17","vgg_18","vgg_19","vgg_20","vgg_21","vgg_22","vgg_23","vgg_24","vgg_25","vgg_26","vgg_27","vgg_28","vgg_29","vgg_30","vgg_31","vgg_32","vgg_33","vgg_34","vgg_35","vgg_36","vgg_37","vgg_38","vgg_39","vgg_40","vgg_41","vgg_42","vgg_43","vgg_44","vgg_45","vgg_46","vgg_47","vgg_48","vgg_49","vgg_50","vgg_51","vgg_52","vgg_53","vgg_54","vgg_55","vgg_56","vgg_57","vgg_58","vgg_59","vgg_60","vgg_61","vgg_62","vgg_63","vgg_64","vgg_65","vgg_66","vgg_67","vgg_68","vgg_69","vgg_70","vgg_71","vgg_72","vgg_73","vgg_74","vgg_75","vgg_76","vgg_77","vgg_78","vgg_79","vgg_80","vgg_81","vgg_82","vgg_83","vgg_84","vgg_85","vgg_86","vgg_87","vgg_88","vgg_89","vgg_90","vgg_91","vgg_92","vgg_93","vgg_94","vgg_95","vgg_96","vgg_97","vgg_98","vgg_99","vgg_100","vgg_101","vgg_102","vgg_103","vgg_104","vgg_105","vgg_106","vgg_107","vgg_108","vgg_109","vgg_110","vgg_111","vgg_112","vgg_113","vgg_114","vgg_115","vgg_116","vgg_117","vgg_118","vgg_119","vgg_120","vgg_121","vgg_122","vgg_123","vgg_124","vgg_125","vgg_126","vgg_127","vgg_128","vgg_129","vgg_130","vgg_131","vgg_132","vgg_133","vgg_134","vgg_135","vgg_136","vgg_137","vgg_138","vgg_139","vgg_140","vgg_141","vgg_142","vgg_143","vgg_144","vgg_145","vgg_146","vgg_147","vgg_148","vgg_149","vgg_150","vgg_151","vgg_152","vgg_153","vgg_154","vgg_155","vgg_156","vgg_157","vgg_158","vgg_159","vgg_160","vgg_161","vgg_162","vgg_163","vgg_164","vgg_165","vgg_166","vgg_167","vgg_168","vgg_169","vgg_170","vgg_171","vgg_172","vgg_173","vgg_174","vgg_175","vgg_176","vgg_177","vgg_178","vgg_179","vgg_180","vgg_181","vgg_182","vgg_183","vgg_184","vgg_185","vgg_186","vgg_187","vgg_188","vgg_189","vgg_190","vgg_191","vgg_192","vgg_193","vgg_194","vgg_195","vgg_196","vgg_197","vgg_198","vgg_199"],"feature_types":["float","float","float","float","float","float","float","float","float","float","float","float","float","float","float","float","float","float","float","float","float","float","float","float","float","float","float","float","float","float","float","float","float","float","float","float","float","float","float","float","float","float","float","float","float","float","float","float","float","float","float","float","float","float","float","float","float","float","float","float","float","float","float","float","float","float","float","float","float","float","float","float","float","float","float","float","float","float","float","float","float","float","float","float","float","float","float","float","float","float","float","float","float","float","float","float","float","float","float","float","float","float","float","float","float","float","float","float","float","float","float","float","float","float","float","float","float","float","float","float","float","float","float","float","float","float","float","float","float","float","float","float","float","float","float","float","float","float","float","float","float","float","float","float","float","float","float","float","float","float","float","float","float","float","float","float","float","float","float","float","float","float","float","float","float","float","float","float","float","float","float","float","float","float","float","float","float","float","float","float","float","float","float","float","float","float","float","float","float","float","float","float","float","float","float","float","float","float","float","float","float","float"],"gradient_booster":{"model":{"gbtree_model_param":{"num_parallel_tree":"1","num_trees":"100"},"iteration_indptr":[0,1,2,3,4,5,6,7,8,9,10,11,12,13,14,15,16,17,18,19,20,21,22,23,24,25,26,27,28,29,30,31,32,33,34,35,36,37,38,39,40,41,42,43,44,45,46,47,48,49,50,51,52,53,54,55,56,57,58,59,60,61,62,63,64,65,66,67,68,69,70,71,72,73,74,75,76,77,78,79,80,81,82,83,84,85,86,87,88,89,90,91,92,93,94,95,96,97,98,99,100],"tree_info":[0,0,0,0,0,0,0,0,0,0,0,0,0,0,0,0,0,0,0,0,0,0,0,0,0,0,0,0,0,0,0,0,0,0,0,0,0,0,0,0,0,0,0,0,0,0,0,0,0,0,0,0,0,0,0,0,0,0,0,0,0,0,0,0,0,0,0,0,0,0,0,0,0,0,0,0,0,0,0,0,0,0,0,0,0,0,0,0,0,0,0,0,0,0,0,0,0,0,0,0],"trees":[{"base_weights":[1.1080048E-1,-8.449671E-1,6.6686666E-1,7.0561275E-2,-1.21754244E-1,-3.5438076E-1,1.37158E0,-1.0626336E-1,6.1164415E-1,1.830621E0,-7.4617796E-2,-7.4617796E-2,1.6734733E-1,-2.6224772E-2,2.2858392E-1],"categories":[],"categories_nodes":[],"categories_segments":[],"categories_sizes":[],"default_left":[0,0,0,0,0,0,0,0,0,0,0,0,0,0,0],"id":0,"left_children":[1,3,5,-1,-1,7,9,-1,11,13,-1,-1,-1,-1,-1],"loss_changes":[1.0616634E1,5.133274E0,9.494572E0,0E0,0E0,4.690439E0,8.765654E0,0E0,5.7655406E0,6.835287E0,0E0,0E0,0E0,0E0,0E0],"parents":[2147483647,0,0,1,1,2,2,5,5,6,6,8,8,9,9],"right_children":[2,4,6,-1,-1,8,10,-1,12,14,-1,-1,-1,-1,-1],"split_conditions":[-1.0650068E3,3.2237564E2,3.4202603E2,7.0561275E-2,-1.21754244E-1,5.2990027E2,7.1E-5,-1.0626336E-1,-3.0383365E2,-6.566117E2,-7.4617796E-2,-7.4617796E-2,1.6734733E-1,-2.6224772E-2,2.2858392E-1],"split_indices":[135,192,184,0,0,79,1,0,105,151,0,0,0,0,0],"split_type":[0,0,0,0,0,0,0,0,0,0,0,0,0,0,0],"sum_hessian":[1.7915749E1,6.3984814E0,1.1517267E1,1.0664136E0,5.332068E0,4.9055023E0,6.6117644E0,2.7726753E0,2.1328273E0,5.5453506E0,1.0664136E0,1.0664136E0,1.0664136E0,1.0664136E0,4.478937E0],"tree_param":{"num_deleted":"0","num_feature":"202","num_nodes":"15","size_leaf_vector":"1"}},{"base_weights":[8.352209E-2,-5.558497E-1,2.2624837E-1,1.1248418E0,-9.364398E-1,1.4992045E-1,1.9708918E-2,-1.1418158E0,6.610896E-2,1.8801276E-2,-1.2955639E-1],"categories":[],"categories_nodes":[],"categories_segments":[],"categories_sizes":[],"default_left":[0,0,0,0,0,0,0,0,0,0,0],"id":1,"left_children":[1,3,-1,5,7,-1,-1,9,-1,-1,-1],"loss_changes":[2.685455E1,1.0653161E1,0E0,8.2472324E-1,4.9487085E0,0E0,0E0,2.6343307E0,0E0,0E0,0E0],"parents":[2147483647,0,0,1,1,3,3,4,4,7,7],"right_children":[2,4,-1,6,8,-1,-1,10,-1,-1,-1],"split_conditions":[6.845935E-1,8.451567E2,2.2624837E-1,7.1256757E2,-8.149056E2,1.4992045E-1,1.9708918E-2,-1.1500837E3,6.610896E-2,1.8801276E-2,-1.2955639E-1],"split_indices":[0,200,0,3,194,0,0,72,0,0,0],"split_type":[0,0,0,0,0,0,0,0,0,0,0],"sum_hessian":[1.7373217E1,1.4007812E1,3.3654046E0,2.225306E0,1.1782505E1,1.1466585E0,1.0786475E0,1.069308E1,1.0894251E0,1.085064E0,9.608016E0],"tree_param":{"num_deleted":"0","num_feature":"202","num_nodes":"11","size_leaf_vector":"1"}},{"base_weights":[-1.0321236E-1,-5.260397E-1,8.256113E-1,-8.199208E-1,7.7423826E-2,-7.45781E-2,1.3922839E0,5.0365467E-2,-1.1359957E0,1.8670845E-1,7.021431E-3,-1.2247931E-1,-2.218786E-2],"categories":[],"categories_nodes":[],"categories_segments":[],"categories_sizes":[],"default_left":[0,0,0,0,0,0,0,0,0,0,0,0,0],"id":2,"left_children":[1,3,5,7,-1,-1,9,-1,11,-1,-1,-1,-1],"loss_changes":[7.1972237E0,5.3900537E0,6.1817102E0,5.0216045E0,0E0,0E0,2.752634E0,0E0,4.500723E-1,0E0,0E0,0E0,0E0],"parents":[2147483647,0,0,1,1,2,2,3,3,6,6,8,8],"right_children":[2,4,6,8,-1,-1,10,-1,12,-1,-1,-1,-1],"split_conditions":[2.2759164E2,-5.749575E2,-3.590335E2,9.101873E1,7.7423826E-2,-7.45781E-2,-7.822619E2,5.0365467E-2,1.6191536E3,1.8670845E-1,7.021431E-3,-1.2247931E-1,-2.218786E-2],"split_indices":[90,52,125,8,0,0,64,0,164,0,0,0,0],"split_type":[0,0,0,0,0,0,0,0,0,0,0,0,0],"sum_hessian":[1.6220186E1,1.1444134E1,4.776051E0,9.635747E0,1.8083873E0,1.182073E0,3.5939782E0,1.7430779E0,7.8926687E0,2.3410006E0,1.2529776E0,6.884084E0,1.0085849E0],"tree_param":{"num_deleted":"0","num_feature":"202","num_nodes":"13","size_leaf_vector":"1"}},{"base_weights":[-4.4743456E-2,-5.0836766E-1,1.8324514E-1,3.8736463E-1,-1.0716686E0,-1.0627308E-1,1.8202285E-1,-1.23093955E-1,-3.6560532E-3],"categories":[],"categories_nodes":[],"categories_segments":[],"categories_sizes":[],"default_left":[0,0,0,0,0,0,0,0,0],"id":3,"left_children":[1,3,-1,5,7,-1,-1,-1,-1],"loss_changes":[1.8208775E1,8.84276E0,0E0,1.6859295E1,1.689292E0,0E0,0E0,0E0,0E0],"parents":[2147483647,0,0,1,1,3,3,4,4],"right_children":[2,4,-1,6,8,-1,-1,-1,-1],"split_conditions":[7.291925E-1,2.64E-5,1.8324514E-1,1.5666816E-1,-4.6417383E2,-1.0627308E-1,1.8202285E-1,-1.23093955E-1,-3.6560532E-3],"split_indices":[0,1,0,0,5,0,0,0,0],"split_type":[0,0,0,0,0,0,0,0,0],"sum_hessian":[1.885173E1,1.5702708E1,3.149022E0,6.183058E0,9.5196495E0,3.2014372E0,2.9816208E0,8.086241E0,1.4334095E0],"tree_param":{"num_deleted":"0","num_feature":"202","num_nodes":"9","size_leaf_vector":"1"}},{"base_weights":[-1.7466708E-1,-6.680727E-1,1.6559647E-1,-9.44566E-1,4.0678892E-1,-1.1342318E0,2.7345175E-2,1.1919995E-1,-7.403704E-2,-1.21368445E-1,-2.1878874E-2],"categories":[],"categories_nodes":[],"categories_segments":[],"categories_sizes":[],"default_left":[0,0,0,0,0,0,0,0,0,0,0],"id":4,"left_children":[1,3,-1,5,7,9,-1,-1,-1,-1,-1],"loss_changes":[1.7843449E1,4.933818E0,0E0,3.1926336E0,4.333496E0,5.33844E-1,0E0,0E0,0E0,0E0,0E0],"parents":[2147483647,0,0,1,1,3,3,4,4,5,5],"right_children":[2,4,-1,6,8,10,-1,-1,-1,-1,-1],"split_conditions":[7.291925E-1,-1.2383567E2,1.6559647E-1,-8.242334E2,5.0388806E2,-5.038694E2,2.7345175E-2,1.1919995E-1,-7.403704E-2,-1.21368445E-1,-2.1878874E-2],"split_indices":[0,39,0,55,168,70,0,0,0,0,0],"split_type":[0,0,0,0,0,0,0,0,0,0,0],"sum_hessian":[1.7530035E1,1.4308547E1,3.2214885E0,1.1477372E1,2.831175E0,9.990477E0,1.4868959E0,1.6575339E0,1.1736411E0,8.892863E0,1.0976131E0],"tree_param":{"num_deleted":"0","num_feature":"202","num_nodes":"11","size_leaf_vector":"1"}},{"base_weights":[-1.2590145E-1,-5.997298E-1,1.462532E-1,2.9830092E-1,-1.1772417E-1,-8.6111985E-2,9.0057856E-1,1.4694366E-1,-3.7147924E-2],"categories":[],"categories_nodes":[],"categories_segments":[],"categories_sizes":[],"default_left":[0,0,0,0,0,0,0,0,0],"id":5,"left_children":[1,3,-1,5,-1,-1,7,-1,-1],"loss_changes":[1.5227731E1,8.335512E0,0E0,5.5402236E0,0E0,0E0,4.1490946E0,0E0,0E0],"parents":[2147483647,0,0,1,1,3,3,6,6],"right_children":[2,4,-1,6,-1,-1,8,-1,-1],"split_conditions":[6.872584E-1,2.3722104E2,1.462532E-1,2.1860054E-1,-1.1772417E-1,-8.6111985E-2,2.0726846E2,1.4694366E-1,-3.7147924E-2],"split_indices":[0,154,0,0,0,0,153,0,0],"split_type":[0,0,0,0,0,0,0,0,0],"sum_hessian":[1.8066908E1,1.4395254E1,3.671653E0,5.8233776E0,8.571877E0,1.8439296E0,3.979448E0,2.6425486E0,1.3368995E0],"tree_param":{"num_deleted":"0","num_feature":"202","num_nodes":"9","size_leaf_vector":"1"}},{"base_weights":[8.38612E-2,-4.9658823E-1,1.4176072E-1,3.160662E-1,-1.1099198E-1,-9.502401E-2,1.6110113E-1],"categories":[],"categories_nodes":[],"categories_segments":[],"categories_sizes":[],"default_left":[0,0,0,0,0,0,0],"id":6,"left_children":[1,3,-1,5,-1,-1,-1],"loss_changes":[1.3874186E1,6.627973E0,0E0,1.168963E1,0E0,0E0,0E0],"parents":[2147483647,0,0,1,1,3,3],"right_children":[2,4,-1,6,-1,-1,-1],"split_conditions":[6.872584E-1,2.64E-5,1.4176072E-1,1.5666816E-1,-1.1099198E-1,-9.502401E-2,1.6110113E-1],"split_indices":[0,1,0,0,0,0,0],"split_type":[0,0,0,0,0,0,0],"sum_hessian":[1.6012003E1,1.1593958E1,4.418044E0,5.1951466E0,6.398812E0,2.7612028E0,2.4339437E0],"tree_param":{"num_deleted":"0","num_feature":"202","num_nodes":"7","size_leaf_vector":"1"}},{"base_weights":[-3.6438756E-2,-5.3433204E-1,1.2472546E-1,-9.280112E-1,6.240276E-1,2.2842135E-2,-1.10741474E-1,1.0869888E-1,-7.7576987E-3],"categories":[],"categories_nodes":[],"categories_segments":[],"categories_sizes":[],"default_left":[0,0,0,0,0,0,0,0,0],"id":7,"left_children":[1,3,-1,5,7,-1,-1,-1,-1],"loss_changes":[1.0596094E1,6.0031295E0,0E0,2.1781116E0,1.2585124E0,0E0,0E0,0E0,0E0],"parents":[2147483647,0,0,1,1,3,3,4,4],"right_children":[2,4,-1,6,8,-1,-1,-1,-1],"split_conditions":[6.845935E-1,-1.2383567E2,1.2472546E-1,8.0436383E2,-2.6230612E2,2.2842135E-2,-1.10741474E-1,1.0869888E-1,-7.7576987E-3],"split_indices":[0,39,0,111,105,0,0,0,0],"split_type":[0,0,0,0,0,0,0,0,0],"sum_hessian":[1.4535892E1,1.0894216E1,3.6416762E0,8.279283E0,2.6149328E0,1.0752174E0,7.2040653E0,1.2444677E0,1.370465E0],"tree_param":{"num_deleted":"0","num_feature":"202","num_nodes":"9","size_leaf_vector":"1"}},{"base_weights":[5.1787235E-2,-4.251511E-1,1.3256687E-1,3.018211E-1,-1.05539694E-1,-3.942755E-1,1.11501865E-1,-8.588536E-2,5.1108975E-2],"categories":[],"categories_nodes":[],"categories_segments":[],"categories_sizes":[],"default_left":[0,0,0,0,0,0,0,0,0],"id":8,"left_children":[1,3,-1,5,-1,7,-1,-1,-1],"loss_changes":[1.0279703E1,5.996543E0,0E0,4.137375E0,0E0,2.2300785E0,0E0,0E0,0E0],"parents":[2147483647,0,0,1,1,3,3,5,5],"right_children":[2,4,-1,6,-1,8,-1,-1,-1],"split_conditions":[6.872584E-1,2.9687094E2,1.3256687E-1,-8.2615967E2,-1.05539694E-1,-3.3005304E2,1.11501865E-1,-8.588536E-2,5.1108975E-2],"split_indices":[0,154,0,57,0,115,0,0,0],"split_type":[0,0,0,0,0,0,0,0,0],"sum_hessian":[1.4991916E1,1.1392751E1,3.599165E0,5.532389E0,5.8603616E0,3.2583754E0,2.2740135E0,2.1873398E0,1.0710357E0],"tree_param":{"num_deleted":"0","num_feature":"202","num_nodes":"9","size_leaf_vector":"1"}},{"base_weights":[-6.1150875E-2,-4.2889142E-1,1.1818333E-1,6.884348E-1,-7.605303E-1,-2.6760995E-2,1.24832414E-1,1.3107143E-1,-9.976093E-1,-3.2587156E-2,5.5004146E-2,-2.034156E-2,-1.07533E-1],"categories":[],"categories_nodes":[],"categories_segments":[],"categories_sizes":[],"default_left":[0,0,0,0,0,0,0,0,0,0,0,0,0],"id":9,"left_children":[1,3,-1,5,7,-1,-1,9,11,-1,-1,-1,-1],"loss_changes":[7.982542E0,5.4720798E0,0E0,2.2511454E0,2.40797E0,0E0,0E0,7.8167385E-1,3.1372166E-1,0E0,0E0,0E0,0E0],"parents":[2147483647,0,0,1,1,3,3,4,4,7,7,8,8],"right_children":[2,4,-1,6,8,-1,-1,10,12,-1,-1,-1,-1],"split_conditions":[7.291925E-1,1.1804331E3,1.1818333E-1,-7.551927E2,1.06400475E2,-2.6760995E-2,1.24832414E-1,5.3360046E2,-8.965435E2,-3.2587156E-2,5.5004146E-2,-2.034156E-2,-1.07533E-1],"split_indices":[0,164,0,32,154,0,0,106,32,0,0,0,0],"split_type":[0,0,0,0,0,0,0,0,0,0,0,0,0],"sum_hessian":[1.5354701E1,1.2354527E1,3.0001736E0,2.58146E0,9.773067E0,1.1462314E0,1.4352286E0,2.1467514E0,7.626316E0,1.1331296E0,1.013622E0,1.0022297E0,6.6240864E0],"tree_param":{"num_deleted":"0","num_feature":"202","num_nodes":"13","size_leaf_vector":"1"}},{"base_weights":[3.451146E-2,-9.893275E-2,4.9165568E-1,7.957161E-1,-8.0013454E-2,-2.2562455E-1,1.0792792E0,-6.2405378E-2,2.8344179E-2,1.3544717E-1,-1.30015705E-2],"categories":[],"categories_nodes":[],"categories_segments":[],"categories_sizes":[],"default_left":[0,0,0,0,0,0,0,0,0,0,0],"id":10,"left_children":[1,-1,3,5,-1,7,9,-1,-1,-1,-1],"loss_changes":[8.256701E0,0E0,5.4070873E0,3.2359576E0,0E0,8.000501E-1,2.9249725E0,0E0,0E0,0E0,0E0],"parents":[2147483647,0,0,2,2,3,3,5,5,6,6],"right_children":[2,-1,4,6,-1,8,10,-1,-1,-1,-1],"split_conditions":[2.281976E-1,-9.893275E-2,7.1E-5,-7.281298E2,-8.0013454E-2,-4.728007E2,5.30219E2,-6.2405378E-2,2.8344179E-2,1.3544717E-1,-1.30015705E-2],"split_indices":[0,0,1,48,0,180,168,0,0,0,0],"split_type":[0,0,0,0,0,0,0,0,0,0,0],"sum_hessian":[1.5601698E1,4.456528E0,1.114517E1,9.332513E0,1.8126575E0,2.0724092E0,7.260103E0,1.0358247E0,1.0365844E0,5.8164377E0,1.4436657E0],"tree_param":{"num_deleted":"0","num_feature":"202","num_nodes":"11","size_leaf_vector":"1"}},{"base_weights":[2.9132389E-2,-9.4708644E-2,4.701581E-1,8.584033E-1,-5.472763E-1,-2.331266E-2,1.1745265E0,-7.5243644E-2,-1.2982121E-3,1.3536231E-1,2.0688638E-2],"categories":[],"categories_nodes":[],"categories_segments":[],"categories_sizes":[],"default_left":[0,0,0,0,0,0,0,0,0,0,0],"id":11,"left_children":[1,-1,3,5,7,-1,9,-1,-1,-1,-1],"loss_changes":[6.6673455E0,0E0,4.665981E0,3.0612655E0,3.7878585E-1,0E0,8.3422375E-1,0E0,0E0,0E0,0E0],"parents":[2147483647,0,0,2,2,3,3,4,4,6,6],"right_children":[2,-1,4,6,8,-1,10,-1,-1,-1,-1],"split_conditions":[2.4565929E-1,-9.4708644E-2,4.70546E2,-1.0723604E3,-4.4285294E2,-2.331266E-2,-9.796968E2,-7.5243644E-2,-1.2982121E-3,1.3536231E-1,2.0688638E-2],"split_indices":[0,0,37,135,146,0,31,0,0,0,0],"split_type":[0,0,0,0,0,0,0,0,0,0,0],"sum_hessian":[1.3451851E1,3.8289452E0,9.622906E0,7.0782175E0,2.5446882E0,1.6485488E0,5.429669E0,1.5436652E0,1.001023E0,4.2450733E0,1.1845952E0],"tree_param":{"num_deleted":"0","num_feature":"202","num_nodes":"11","size_leaf_vector":"1"}},{"base_weights":[2.5447183E-3,2.792024E-1,-8.7717585E-2,5.826786E-1,-5.488454E-1,9.7260624E-1,-7.403732E-2,-5.1161265E-3,-7.234861E-2,1.2450726E-1,9.613704E-3,-5.966244E-2,6.0632914E-2],"categories":[],"categories_nodes":[],"categories_segments":[],"categories_sizes":[],"default_left":[0,0,0,0,0,0,0,0,0,0,0,0,0],"id":12,"left_children":[1,3,-1,5,7,9,11,-1,-1,-1,-1,-1,-1],"loss_changes":[3.6412427E0,3.1781852E0,0E0,2.3277586E0,2.7289844E-1,1.2171454E0,1.8590031E0,0E0,0E0,0E0,0E0,0E0,0E0],"parents":[2147483647,0,0,1,1,3,3,4,4,5,5,6,6],"right_children":[2,4,-1,6,8,10,12,-1,-1,-1,-1,-1,-1],"split_conditions":[-4.6572476E2,-1.11156555E2,-8.7717585E-2,5.148145E2,2.2845474E3,6.4876575E2,-8.75465E2,-5.1161265E-3,-7.234861E-2,1.2450726E-1,9.613704E-3,-5.966244E-2,6.0632914E-2],"split_indices":[22,63,0,29,99,61,67,0,0,0,0,0,0],"split_type":[0,0,0,0,0,0,0,0,0,0,0,0,0],"sum_hessian":[1.2954773E1,1.0374718E1,2.580055E0,7.8090534E0,2.5656643E0,4.597974E0,3.2110796E0,1.0023003E0,1.563364E0,3.1867576E0,1.4112163E0,1.8857362E0,1.3253434E0],"tree_param":{"num_deleted":"0","num_feature":"202","num_nodes":"13","size_leaf_vector":"1"}},{"base_weights":[-5.688132E-2,-4.7116885E-1,9.658477E-2,1.8291822E-1,-8.796073E-1,-7.111517E-2,7.5526994E-1,-9.634263E-2,-2.0481443E-2,2.6859457E-4,1.0760222E-1],"categories":[],"categories_nodes":[],"categories_segments":[],"categories_sizes":[],"default_left":[0,0,0,0,0,0,0,0,0,0,0],"id":13,"left_children":[1,3,-1,5,7,-1,9,-1,-1,-1,-1],"loss_changes":[6.3091326E0,2.9674284E0,0E0,3.0272107E0,1.7819023E-1,0E0,8.30351E-1,0E0,0E0,0E0,0E0],"parents":[2147483647,0,0,1,1,3,3,4,4,6,6],"right_children":[2,4,-1,6,8,-1,10,-1,-1,-1,-1],"split_conditions":[6.845935E-1,9.468451E2,9.658477E-2,-3.073448E2,-4.3104987E2,-7.111517E-2,2.5485903E-1,-9.634263E-2,-2.0481443E-2,2.6859457E-4,1.0760222E-1],"split_indices":[0,200,0,150,48,0,0,0,0,0,0],"split_type":[0,0,0,0,0,0,0,0,0,0,0],"sum_hessian":[1.2816384E1,9.505282E0,3.311102E0,3.8661125E0,5.6391697E0,1.4143109E0,2.4518018E0,4.635623E0,1.0035468E0,1.0340273E0,1.4177743E0],"tree_param":{"num_deleted":"0","num_feature":"202","num_nodes":"11","size_leaf_vector":"1"}},{"base_weights":[2.4492223E-2,-8.9911275E-2,4.1837692E-1,7.1324414E-1,-7.5166844E-2,9.260115E-1,-3.9360832E-2,1.11650184E-1,-7.297302E-3],"categories":[],"categories_nodes":[],"categories_segments":[],"categories_sizes":[],"default_left":[0,0,0,0,0,0,0,0,0],"id":14,"left_children":[1,-1,3,5,-1,7,-1,-1,-1],"loss_changes":[5.527329E0,0E0,4.1962357E0,2.4808226E0,0E0,1.5726085E0,0E0,0E0,0E0],"parents":[2147483647,0,0,2,2,3,3,5,5],"right_children":[2,-1,4,6,-1,8,-1,-1,-1],"split_conditions":[2.4565929E-1,-8.9911275E-2,7.1E-5,-7.773628E1,-7.5166844E-2,5.2396844E2,-3.9360832E-2,1.11650184E-1,-7.297302E-3],"split_indices":[0,0,1,186,0,168,0,0,0],"split_type":[0,0,0,0,0,0,0,0,0],"sum_hessian":[1.3159558E1,3.5507834E0,9.608775E0,7.986486E0,1.6222888E0,6.835834E0,1.1506519E0,5.6423016E0,1.1935328E0],"tree_param":{"num_deleted":"0","num_feature":"202","num_nodes":"9","size_leaf_vector":"1"}},{"base_weights":[-3.3325005E-2,-3.948474E-1,9.920031E-2,3.2737854E-1,-9.774729E-2,-7.395523E-2,1.06960654E-1],"categories":[],"categories_nodes":[],"categories_segments":[],"categories_sizes":[],"default_left":[0,0,0,0,0,0,0],"id":15,"left_children":[1,3,-1,5,-1,-1,-1],"loss_changes":[5.223525E0,4.6761665E0,0E0,5.0447793E0,0E0,0E0,0E0],"parents":[2147483647,0,0,1,1,3,3],"right_children":[2,4,-1,6,-1,-1,-1],"split_conditions":[7.291925E-1,2.64E-5,9.920031E-2,1.5666816E-1,-9.774729E-2,-7.395523E-2,1.06960654E-1],"split_indices":[0,1,0,0,0,0,0],"split_type":[0,0,0,0,0,0,0],"sum_hessian":[1.2035091E1,9.352412E0,2.6826787E0,4.371533E0,4.9808793E0,1.79495E0,2.576583E0],"tree_param":{"num_deleted":"0","num_feature":"202","num_nodes":"7","size_leaf_vector":"1"}},{"base_weights":[-5.3860564E-3,-4.0213773E-1,9.830051E-2,2.8121594E-1,-8.403295E-2,-6.301378E-2,8.555723E-2],"categories":[],"categories_nodes":[],"categories_segments":[],"categories_sizes":[],"default_left":[0,0,0,0,0,0,0],"id":16,"left_children":[1,3,-1,5,-1,-1,-1],"loss_changes":[4.9145026E0,2.9112163E0,0E0,2.7582185E0,0E0,0E0,0E0],"parents":[2147483647,0,0,1,1,3,3],"right_children":[2,4,-1,6,-1,-1,-1],"split_conditions":[6.872584E-1,9.468451E2,9.830051E-2,1.8598206E-1,-8.403295E-2,-6.301378E-2,8.555723E-2],"split_indices":[0,200,0,0,0,0,0],"split_type":[0,0,0,0,0,0,0],"sum_hessian":[1.0524282E1,7.9330163E0,2.591266E0,3.2394216E0,4.693595E0,1.2147734E0,2.0246482E0],"tree_param":{"num_deleted":"0","num_feature":"202","num_nodes":"7","size_leaf_vector":"1"}},{"base_weights":[-1.74834E-2,-8.057287E-2,3.05869E-1,5.385553E-1,-6.374527E-2,-9.621547E-2,9.3004423E-1,3.5009157E-2,-6.1421998E-2,1.0959696E-1,2.7552033E-2],"categories":[],"categories_nodes":[],"categories_segments":[],"categories_sizes":[],"default_left":[0,0,0,0,0,0,0,0,0,0,0],"id":17,"left_children":[1,-1,3,5,-1,7,9,-1,-1,-1,-1],"loss_changes":[3.161018E0,0E0,2.2822466E0,1.9850278E0,0E0,1.0972558E0,2.2060394E-1,0E0,0E0,0E0,0E0],"parents":[2147483647,0,0,2,2,3,3,5,5,6,6],"right_children":[2,-1,4,6,-1,8,10,-1,-1,-1,-1],"split_conditions":[2.4565929E-1,-8.057287E-2,-3.327332E2,-3.241651E2,-6.374527E-2,-6.3467816E2,-5.368232E2,3.5009157E-2,-6.1421998E-2,1.0959696E-1,2.7552033E-2],"split_indices":[0,0,161,58,0,182,133,0,0,0,0],"split_type":[0,0,0,0,0,0,0,0,0,0,0],"sum_hessian":[1.0435023E1,2.601493E0,7.8335304E0,6.6277657E0,1.2057648E0,2.8160222E0,3.8117435E0,1.6868253E0,1.129197E0,2.5028136E0,1.3089299E0],"tree_param":{"num_deleted":"0","num_feature":"202","num_nodes":"11","size_leaf_vector":"1"}},{"base_weights":[-5.9005633E-2,4.3051037E-1,-4.2754528E-1,8.229644E-2,-2.0342741E-2,-7.969682E-2,2.1656686E-1,6.4316444E-2,-3.5815924E-2],"categories":[],"categories_nodes":[],"categories_segments":[],"categories_sizes":[],"default_left":[0,0,0,0,0,0,0,0,0],"id":18,"left_children":[1,3,5,-1,-1,-1,7,-1,-1],"loss_changes":[2.1206326E0,1.4384398E0,1.7491819E0,0E0,0E0,0E0,1.0152458E0,0E0,0E0],"parents":[2147483647,0,0,1,1,2,2,6,6],"right_children":[2,4,6,-1,-1,-1,8,-1,-1],"split_conditions":[-2.7651706E2,-1.9607047E2,-4.4073352E2,8.229644E-2,-2.0342741E-2,-7.969682E-2,-5.9213385E2,6.4316444E-2,-3.5815924E-2],"split_indices":[141,63,84,0,0,0,22,0,0],"split_type":[0,0,0,0,0,0,0,0,0],"sum_hessian":[9.734508E0,4.108803E0,5.6257052E0,2.3535833E0,1.7552193E0,3.42438E0,2.2013252E0,1.1951387E0,1.0061865E0],"tree_param":{"num_deleted":"0","num_feature":"202","num_nodes":"9","size_leaf_vector":"1"}},{"base_weights":[-1.4569472E-2,-3.2012275E-1,8.599909E-2,3.1029406E-1,-7.6772213E-1,-3.5306934E-2,6.722299E-1,-8.729859E-2,-1.5792755E-2,2.1349339E-2,8.0179505E-2],"categories":[],"categories_nodes":[],"categories_segments":[],"categories_sizes":[],"default_left":[0,0,0,0,0,0,0,0,0,0,0],"id":19,"left_children":[1,3,-1,5,7,-1,9,-1,-1,-1,-1],"loss_changes":[3.1165414E0,2.6672332E0,0E0,1.2664738E0,2.0373726E-1,0E0,1.4120698E-2,0E0,0E0,0E0,0E0],"parents":[2147483647,0,0,1,1,3,3,4,4,6,6],"right_children":[2,4,-1,6,8,-1,10,-1,-1,-1,-1],"split_conditions":[7.291925E-1,-1.8978636E1,8.599909E-2,-8.008261E2,-4.0124738E2,-3.5306934E-2,5.03161E2,-8.729859E-2,-1.5792755E-2,2.1349339E-2,8.0179505E-2],"split_indices":[0,91,0,20,152,0,74,0,0,0,0],"split_type":[0,0,0,0,0,0,0,0,0,0,0],"sum_hessian":[9.632393E0,7.6082053E0,2.024188E0,3.2863452E0,4.32186E0,1.1687442E0,2.117601E0,3.3175695E0,1.0042905E0,1.0495057E0,1.0680953E0],"tree_param":{"num_deleted":"0","num_feature":"202","num_nodes":"11","size_leaf_vector":"1"}},{"base_weights":[-5.2448574E-2,-7.89701E-2,2.7521902E-1,5.910328E-1,-6.938274E-2,8.1706107E-1,-2.5943829E-2,1.02593414E-1,2.1473018E-3],"categories":[],"categories_nodes":[],"categories_segments":[],"categories_sizes":[],"default_left":[0,0,0,0,0,0,0,0,0],"id":20,"left_children":[1,-1,3,5,-1,7,-1,-1,-1],"loss_changes":[2.8123093E0,0E0,2.9129415E0,1.5014775E0,0E0,8.986938E-1,0E0,0E0,0E0],"parents":[2147483647,0,0,2,2,3,3,5,5],"right_children":[2,-1,4,6,-1,8,-1,-1,-1],"split_conditions":[2.4565929E-1,-7.89701E-2,7.1E-5,3.5595908E2,-6.938274E-2,1.9987563E2,-2.5943829E-2,1.02593414E-1,2.1473018E-3],"split_indices":[0,0,1,154,0,30,0,0,0],"split_type":[0,0,0,0,0,0,0,0,0],"sum_hessian":[9.741932E0,2.56365E0,7.178282E0,5.7080936E0,1.4701885E0,4.5406237E0,1.16747E0,3.3670988E0,1.1735249E0],"tree_param":{"num_deleted":"0","num_feature":"202","num_nodes":"9","size_leaf_vector":"1"}},{"base_weights":[-1.7018411E-2,-3.0444944E-1,8.01568E-2,3.0509636E-1,-8.585188E-2,6.4799815E-1,-3.6764476E-2,8.288308E-2,1.5809294E-2],"categories":[],"categories_nodes":[],"categories_segments":[],"categories_sizes":[],"default_left":[0,0,0,0,0,0,0,0,0],"id":21,"left_children":[1,3,-1,5,-1,7,-1,-1,-1],"loss_changes":[2.555381E0,2.9621928E0,0E0,1.2866619E0,0E0,1.6773248E-1,0E0,0E0,0E0],"parents":[2147483647,0,0,1,1,3,3,5,5],"right_children":[2,4,-1,6,-1,8,-1,-1,-1],"split_conditions":[6.872584E-1,-1.8978636E1,8.01568E-2,-7.192126E2,-8.585188E-2,-3.9398767E2,-3.6764476E-2,8.288308E-2,1.5809294E-2],"split_indices":[0,91,0,181,0,140,0,0,0],"split_type":[0,0,0,0,0,0,0,0,0],"sum_hessian":[8.823504E0,6.9953127E0,1.8281918E0,3.5448673E0,3.4504454E0,2.3724096E0,1.1724578E0,1.2274991E0,1.1449105E0],"tree_param":{"num_deleted":"0","num_feature":"202","num_nodes":"9","size_leaf_vector":"1"}},{"base_weights":[8.00013E-2,3.0037922E-1,-6.9734864E-2,-3.8480666E-2,5.0605994E-1,7.9040134E-1,-3.4356136E-2,1.417582E-2,9.516564E-2,4.635069E-2,-5.7759143E-2],"categories":[],"categories_nodes":[],"categories_segments":[],"categories_sizes":[],"default_left":[0,0,0,0,0,0,0,0,0,0,0],"id":22,"left_children":[1,3,-1,-1,5,7,9,-1,-1,-1,-1],"loss_changes":[1.955709E0,1.4124826E0,0E0,0E0,1.1147491E0,3.5453892E-1,1.1868567E0,0E0,0E0,0E0,0E0],"parents":[2147483647,0,0,1,1,4,4,5,5,6,6],"right_children":[2,4,-1,-1,6,8,10,-1,-1,-1,-1],"split_conditions":[-4.2149872E2,-1.0650068E3,-6.9734864E-2,-3.8480666E-2,-2.6762957E1,-1.0692166E2,8.363005E1,1.417582E-2,9.516564E-2,4.635069E-2,-5.7759143E-2],"split_indices":[22,135,0,0,137,131,30,0,0,0,0],"split_type":[0,0,0,0,0,0,0,0,0,0,0],"sum_hessian":[9.193406E0,7.6408253E0,1.5525804E0,1.5630229E0,6.0778027E0,3.6793325E0,2.39847E0,1.1067122E0,2.5726204E0,1.32808E0,1.0703899E0],"tree_param":{"num_deleted":"0","num_feature":"202","num_nodes":"11","size_leaf_vector":"1"}},{"base_weights":[3.440172E-2,-7.371228E-2,3.2448924E-1,5.995362E-1,-3.7957724E-2,-2.4627665E-2,9.0046096E-1,2.2059202E-2,1.0473769E-1],"categories":[],"categories_nodes":[],"categories_segments":[],"categories_sizes":[],"default_left":[0,0,0,0,0,0,0,0,0],"id":23,"left_children":[1,-1,3,5,-1,-1,7,-1,-1],"loss_changes":[2.5338004E0,0E0,1.8049259E0,1.8112442E0,0E0,0E0,2.504828E-1,0E0,0E0],"parents":[2147483647,0,0,2,2,3,3,6,6],"right_children":[2,-1,4,6,-1,-1,8,-1,-1],"split_conditions":[2.4565929E-1,-7.371228E-2,-5.257775E2,-3.073448E2,-3.7957724E-2,-2.4627665E-2,-8.853344E2,2.2059202E-2,1.0473769E-1],"split_indices":[0,0,33,150,0,0,40,0,0],"split_type":[0,0,0,0,0,0,0,0,0],"sum_hessian":[9.252515E0,2.1071763E0,7.1453385E0,5.2448707E0,1.9004676E0,1.4240044E0,3.8208663E0,1.1234535E0,2.697413E0],"tree_param":{"num_deleted":"0","num_feature":"202","num_nodes":"9","size_leaf_vector":"1"}},{"base_weights":[9.840061E-2,-7.0789866E-2,3.8108346E-1,6.18828E-1,-5.965776E-2,8.567253E-1,-1.6745661E-3,1.0326027E-1,2.6542494E-2],"categories":[],"categories_nodes":[],"categories_segments":[],"categories_sizes":[],"default_left":[0,0,0,0,0,0,0,0,0],"id":24,"left_children":[1,-1,3,5,-1,7,-1,-1,-1],"loss_changes":[2.5203927E0,0E0,2.2196193E0,1.0568378E0,0E0,2.496531E-1,0E0,0E0,0E0],"parents":[2147483647,0,0,2,2,3,3,5,5],"right_children":[2,-1,4,6,-1,8,-1,-1,-1],"split_conditions":[2.4565929E-1,-7.0789866E-2,7.1E-5,3.5595908E2,-5.965776E-2,3.12E-5,-1.6745661E-3,1.0326027E-1,2.6542494E-2],"split_indices":[0,0,1,154,0,1,0,0,0],"split_type":[0,0,0,0,0,0,0,0,0],"sum_hessian":[8.874322E0,1.9131651E0,6.961157E0,5.894727E0,1.0664294E0,4.036061E0,1.8586667E0,2.5355558E0,1.500505E0],"tree_param":{"num_deleted":"0","num_feature":"202","num_nodes":"9","size_leaf_vector":"1"}},{"base_weights":[1.567542E-1,3.4642228E-1,-6.2536806E-2,5.374398E-1,-4.5113903E-2,7.380312E-1,-2.9654691E-2,9.201666E-2,-1.0568245E-3],"categories":[],"categories_nodes":[],"categories_segments":[],"categories_sizes":[],"default_left":[0,0,0,0,0,0,0,0,0],"id":25,"left_children":[1,3,-1,5,-1,7,-1,-1,-1],"loss_changes":[1.6405997E0,1.5174757E0,0E0,1.4247463E0,0E0,8.4107757E-1,0E0,0E0,0E0],"parents":[2147483647,0,0,1,1,3,3,5,5],"right_children":[2,4,-1,6,-1,8,-1,-1,-1],"split_conditions":[-4.2149872E2,3.4286963E2,-6.2536806E-2,1.7222976E3,-4.5113903E-2,4.9548416E2,-2.9654691E-2,9.201666E-2,-1.0568245E-3],"split_indices":[22,30,0,101,0,37,0,0,0],"split_type":[0,0,0,0,0,0,0,0,0],"sum_hessian":[8.599051E0,7.369089E0,1.2299627E0,6.208328E0,1.1607609E0,5.0973616E0,1.1109667E0,3.9155242E0,1.1818371E0],"tree_param":{"num_deleted":"0","num_feature":"202","num_nodes":"9","size_leaf_vector":"1"}},{"base_weights":[5.4084048E-2,3.5516608E-1,-5.8042374E-2,5.6339985E-1,-3.1803355E-2,-1.3508123E-2,7.903825E-2],"categories":[],"categories_nodes":[],"categories_segments":[],"categories_sizes":[],"default_left":[0,0,0,0,0,0,0],"id":26,"left_children":[1,3,-1,5,-1,-1,-1],"loss_changes":[1.9353321E0,1.1266778E0,0E0,9.8240626E-1,0E0,0E0,0E0],"parents":[2147483647,0,0,1,1,3,3],"right_children":[2,4,-1,6,-1,-1,-1],"split_conditions":[9.1129297E2,4.2354782E1,-5.8042374E-2,-1.1339297E3,-3.1803355E-2,-1.3508123E-2,7.903825E-2],"split_indices":[3,119,0,194,0,0,0],"split_type":[0,0,0,0,0,0,0],"sum_hessian":[8.051484E0,5.7590094E0,2.2924743E0,4.5230446E0,1.2359647E0,1.2086415E0,3.3144033E0],"tree_param":{"num_deleted":"0","num_feature":"202","num_nodes":"7","size_leaf_vector":"1"}},{"base_weights":[3.291418E-2,-6.771328E-2,2.8194177E-1,6.358691E-1,-5.270439E-2,8.346802E-2,-2.3111207E-3],"categories":[],"categories_nodes":[],"categories_segments":[],"categories_sizes":[],"default_left":[0,0,0,0,0,0,0],"id":27,"left_children":[1,-1,3,5,-1,-1,-1],"loss_changes":[1.8397843E0,0E0,2.513988E0,7.722211E-1,0E0,0E0,0E0],"parents":[2147483647,0,0,2,2,3,3],"right_children":[2,-1,4,6,-1,-1,-1],"split_conditions":[2.281976E-1,-6.771328E-2,6.82E-5,3.5595908E2,-5.270439E-2,8.346802E-2,-2.3111207E-3],"split_indices":[0,0,1,154,0,0,0],"split_type":[0,0,0,0,0,0,0],"sum_hessian":[8.325078E0,1.7152671E0,6.6098104E0,4.7470093E0,1.8628013E0,3.441962E0,1.3050473E0],"tree_param":{"num_deleted":"0","num_feature":"202","num_nodes":"7","size_leaf_vector":"1"}},{"base_weights":[1.1908695E-1,-6.553868E-2,3.6591935E-1,6.343895E-1,-3.095748E-2,8.1835663E-1,-1.9965395E-3,9.253928E-2,2.2336897E-2],"categories":[],"categories_nodes":[],"categories_segments":[],"categories_sizes":[],"default_left":[0,0,0,0,0,0,0,0,0],"id":28,"left_children":[1,-1,3,5,-1,7,-1,-1,-1],"loss_changes":[2.0043454E0,0E0,1.5821346E0,7.140589E-1,0E0,8.2929134E-2,0E0,0E0,0E0],"parents":[2147483647,0,0,2,2,3,3,5,5],"right_children":[2,-1,4,6,-1,8,-1,-1,-1],"split_conditions":[2.281976E-1,-6.553868E-2,6.82E-5,-1.9910982E2,-3.095748E-2,-1.6222925E2,-1.9965395E-3,9.253928E-2,2.2336897E-2],"split_indices":[0,0,1,166,0,63,0,0,0],"split_type":[0,0,0,0,0,0,0,0,0],"sum_hessian":[8.230376E0,1.5891113E0,6.6412654E0,4.795987E0,1.8452781E0,3.5478919E0,1.2480953E0,2.5363052E0,1.0115865E0],"tree_param":{"num_deleted":"0","num_feature":"202","num_nodes":"9","size_leaf_vector":"1"}},{"base_weights":[-1.5166495E-2,-2.8713265E-1,6.560916E-2,-6.4445454E-1,2.9101557E-1,-3.561895E-3,-8.011231E-2,-1.5897593E-2,6.1557114E-2],"categories":[],"categories_nodes":[],"categories_segments":[],"categories_sizes":[],"default_left":[0,0,0,0,0,0,0,0,0],"id":29,"left_children":[1,3,-1,5,7,-1,-1,-1,-1],"loss_changes":[1.8364778E0,1.6584871E0,0E0,4.2088497E-1,5.956837E-1,0E0,0E0,0E0,0E0],"parents":[2147483647,0,0,1,1,3,3,4,4],"right_children":[2,4,-1,6,8,-1,-1,-1,-1],"split_conditions":[6.872584E-1,-2.0387874E2,6.560916E-2,8.382225E1,-8.4648987E2,-3.561895E-3,-8.011231E-2,-1.5897593E-2,6.1557114E-2],"split_indices":[0,142,0,30,183,0,0,0,0],"split_type":[0,0,0,0,0,0,0,0,0],"sum_hessian":[8.027701E0,6.120268E0,1.9074336E0,3.7116265E0,2.4086413E0,1.0108144E0,2.700812E0,1.22306E0,1.1855813E0],"tree_param":{"num_deleted":"0","num_feature":"202","num_nodes":"9","size_leaf_vector":"1"}},{"base_weights":[-1.8601255E-2,-4.5554325E-1,2.5522232E-1,-6.960176E-2,8.31473E-3,5.8795905E-1,-2.7852196E-2,1.1520874E-2,7.505695E-2],"categories":[],"categories_nodes":[],"categories_segments":[],"categories_sizes":[],"default_left":[0,0,0,0,0,0,0,0,0],"id":30,"left_children":[1,3,5,-1,-1,7,-1,-1,-1],"loss_changes":[1.1307983E0,5.275669E-1,1.2033546E0,0E0,0E0,2.1543276E-1,0E0,0E0,0E0],"parents":[2147483647,0,0,1,1,2,2,5,5],"right_children":[2,4,6,-1,-1,8,-1,-1,-1],"split_conditions":[-3.073448E2,9.0097156E2,-6.0958453E2,-6.960176E-2,8.31473E-3,6.9240814E2,-2.7852196E-2,1.1520874E-2,7.505695E-2],"split_indices":[150,4,33,0,0,176,0,0,0],"split_type":[0,0,0,0,0,0,0,0,0],"sum_hessian":[7.479531E0,2.6258335E0,4.8536973E0,1.613503E0,1.0123307E0,2.9272635E0,1.9264334E0,1.1864486E0,1.740815E0],"tree_param":{"num_deleted":"0","num_feature":"202","num_nodes":"9","size_leaf_vector":"1"}},{"base_weights":[5.7491336E-2,3.0336785E-1,-3.9456415E-1,-2.7311975E-2,4.8442823E-1,-6.307815E-2,7.956979E-3,-3.523262E-3,6.8049654E-2],"categories":[],"categories_nodes":[],"categories_segments":[],"categories_sizes":[],"default_left":[0,0,0,0,0,0,0,0,0],"id":31,"left_children":[1,3,5,-1,7,-1,-1,-1,-1],"loss_changes":[1.0514754E0,7.5807077E-1,4.2963856E-1,0E0,5.255506E-1,0E0,0E0,0E0,0E0],"parents":[2147483647,0,0,1,1,2,2,4,4],"right_children":[2,4,6,-1,8,-1,-1,-1,-1],"split_conditions":[8.813296E2,2.9208086E1,6.05157E2,-2.7311975E-2,-1.3744559E2,-6.307815E-2,7.956979E-3,-3.523262E-3,6.8049654E-2],"split_indices":[3,85,124,0,131,0,0,0,0],"split_type":[0,0,0,0,0,0,0,0,0],"sum_hessian":[7.3830743E0,4.9951096E0,2.3879647E0,1.0723505E0,3.922759E0,1.3733594E0,1.0146052E0,1.2993243E0,2.6234348E0],"tree_param":{"num_deleted":"0","num_feature":"202","num_nodes":"9","size_leaf_vector":"1"}},{"base_weights":[-1.1904822E-3,-2.9214454E-1,6.292116E-2,2.4547587E-1,-7.1890794E-2,-2.9065922E-2,5.7910245E-2],"categories":[],"categories_nodes":[],"categories_segments":[],"categories_sizes":[],"default_left":[0,0,0,0,0,0,0],"id":32,"left_children":[1,3,-1,5,-1,-1,-1],"loss_changes":[1.6832997E0,1.6165295E0,0E0,7.984683E-1,0E0,0E0,0E0],"parents":[2147483647,0,0,1,1,3,3],"right_children":[2,4,-1,6,-1,-1,-1],"split_conditions":[6.872584E-1,9.635539E2,6.292116E-2,-2.2007689E2,-7.1890794E-2,-2.9065922E-2,5.7910245E-2],"split_indices":[0,54,0,142,0,0,0],"split_type":[0,0,0,0,0,0,0],"sum_hessian":[7.175198E0,5.27648E0,1.8987178E0,2.522954E0,2.753526E0,1.0171659E0,1.5057882E0],"tree_param":{"num_deleted":"0","num_feature":"202","num_nodes":"7","size_leaf_vector":"1"}},{"base_weights":[-8.7026305E-2,-5.155197E-1,2.9049775E-1,5.3438013E-3,-7.299966E-2,6.0915764E-2,-2.2880906E-2],"categories":[],"categories_nodes":[],"categories_segments":[],"categories_sizes":[],"default_left":[0,0,0,0,0,0,0],"id":33,"left_children":[1,3,5,-1,-1,-1,-1],"loss_changes":[1.3900557E0,5.2121603E-1,9.197315E-1,0E0,0E0,0E0,0E0],"parents":[2147483647,0,0,1,1,2,2],"right_children":[2,4,6,-1,-1,-1,-1],"split_conditions":[-8.925255E2,1.5309363E2,1.2405745E3,5.3438013E-3,-7.299966E-2,6.0915764E-2,-2.2880906E-2],"split_indices":[57,175,87,0,0,0,0],"split_type":[0,0,0,0,0,0,0],"sum_hessian":[6.667211E0,2.9515948E0,3.7156162E0,1.0135981E0,1.9379967E0,2.1954262E0,1.52019E0],"tree_param":{"num_deleted":"0","num_feature":"202","num_nodes":"7","size_leaf_vector":"1"}},{"base_weights":[6.0580626E-2,-1.9811727E-1,6.883257E-2,2.9175708E-1,-5.659118E-1,-1.2484991E-2,5.796972E-2,-4.8025213E-3,-7.273105E-2],"categories":[],"categories_nodes":[],"categories_segments":[],"categories_sizes":[],"default_left":[0,0,0,0,0,0,0,0,0],"id":34,"left_children":[1,3,-1,5,7,-1,-1,-1,-1],"loss_changes":[1.3962548E0,1.294882E0,0E0,4.7409025E-1,2.928697E-1,0E0,0E0,0E0,0E0],"parents":[2147483647,0,0,1,1,3,3,4,4],"right_children":[2,4,-1,6,8,-1,-1,-1,-1],"split_conditions":[7.291925E-1,2.64E-5,6.883257E-2,2.5493142E-1,-6.388676E2,-1.2484991E-2,5.796972E-2,-4.8025213E-3,-7.273105E-2],"split_indices":[0,1,0,0,171,0,0,0,0],"split_type":[0,0,0,0,0,0,0,0,0],"sum_hessian":[6.7580924E0,5.270488E0,1.4876047E0,2.3488016E0,2.9216862E0,1.19141E0,1.1573918E0,1.0024949E0,1.9191912E0],"tree_param":{"num_deleted":"0","num_feature":"202","num_nodes":"9","size_leaf_vector":"1"}},{"base_weights":[1.2910071E-1,-5.878481E-2,3.5370025E-1,6.4743555E-1,-3.7590157E-2,8.469018E-2,1.2337285E-2],"categories":[],"categories_nodes":[],"categories_segments":[],"categories_sizes":[],"default_left":[0,0,0,0,0,0,0],"id":35,"left_children":[1,-1,3,5,-1,-1,-1],"loss_changes":[1.4751577E0,0E0,1.6614201E0,4.2705154E-1,0E0,0E0,0E0],"parents":[2147483647,0,0,2,2,3,3],"right_children":[2,-1,4,6,-1,-1,-1],"split_conditions":[2.4565929E-1,-5.878481E-2,6.82E-5,-2.1129509E2,-3.7590157E-2,8.469018E-2,1.2337285E-2],"split_indices":[0,0,1,166,0,0,0],"split_type":[0,0,0,0,0,0,0],"sum_hessian":[6.869741E0,1.252928E0,5.6168127E0,4.084874E0,1.531939E0,2.512534E0,1.5723401E0],"tree_param":{"num_deleted":"0","num_feature":"202","num_nodes":"7","size_leaf_vector":"1"}},{"base_weights":[1.0001978E-1,-2.1244626E-1,7.300534E-2,3.333177E-1,-7.3846E-2,-3.003834E-2,7.28839E-2],"categories":[],"categories_nodes":[],"categories_segments":[],"categories_sizes":[],"default_left":[0,0,0,0,0,0,0],"id":36,"left_children":[1,3,-1,5,-1,-1,-1],"loss_changes":[1.5683442E0,1.846152E0,0E0,1.0772195E0,0E0,0E0,0E0],"parents":[2147483647,0,0,1,1,3,3],"right_children":[2,4,-1,6,-1,-1,-1],"split_conditions":[6.872584E-1,2.64E-5,7.300534E-2,2.5485903E-1,-7.3846E-2,-3.003834E-2,7.28839E-2],"split_indices":[0,1,0,0,0,0,0],"split_type":[0,0,0,0,0,0,0],"sum_hessian":[6.178795E0,4.573408E0,1.6053865E0,2.4243567E0,2.1490517E0,1.0240959E0,1.4002608E0],"tree_param":{"num_deleted":"0","num_feature":"202","num_nodes":"7","size_leaf_vector":"1"}},{"base_weights":[2.2237701E-2,-3.798708E-1,2.984838E-1,5.2162283E-3,-5.9616756E-2,5.7722837E-1,-3.1769678E-2,1.8137654E-2,6.9310986E-2],"categories":[],"categories_nodes":[],"categories_segments":[],"categories_sizes":[],"default_left":[0,0,0,0,0,0,0,0,0],"id":37,"left_children":[1,3,5,-1,-1,7,-1,-1,-1],"loss_changes":[8.929788E-1,3.392915E-1,9.941107E-1,0E0,0E0,3.965366E-2,0E0,0E0,0E0],"parents":[2147483647,0,0,1,1,2,2,5,5],"right_children":[2,4,6,-1,-1,8,-1,-1,-1],"split_conditions":[-1.0048751E2,6.4933527E2,4.0637616E2,5.2162283E-3,-5.9616756E-2,-5.7091516E2,-3.1769678E-2,1.8137654E-2,6.9310986E-2],"split_indices":[131,6,199,0,0,65,0,0,0],"split_type":[0,0,0,0,0,0,0,0,0],"sum_hessian":[6.01825E0,2.2980506E0,3.7201993E0,1.0198442E0,1.2782065E0,2.6049852E0,1.1152141E0,1.1707809E0,1.4342042E0],"tree_param":{"num_deleted":"0","num_feature":"202","num_nodes":"9","size_leaf_vector":"1"}},{"base_weights":[1.5761439E-3,3.0180454E-1,-5.020985E-2,-9.052974E-3,6.712993E-2,3.5706744E-2,-4.777458E-2],"categories":[],"categories_nodes":[],"categories_segments":[],"categories_sizes":[],"default_left":[0,0,0,0,0,0,0],"id":38,"left_children":[1,3,-1,5,-1,-1,-1],"loss_changes":[1.2210783E0,5.8680975E-1,0E0,8.1108904E-1,0E0,0E0,0E0],"parents":[2147483647,0,0,1,1,3,3],"right_children":[2,4,-1,6,-1,-1,-1],"split_conditions":[-5.290173E2,6.845935E-1,-5.020985E-2,-2.9114958E1,6.712993E-2,3.5706744E-2,-4.777458E-2],"split_indices":[22,0,0,91,0,0,0],"split_type":[0,0,0,0,0,0,0],"sum_hessian":[6.0728793E0,4.0559936E0,2.016886E0,2.73257E0,1.3234235E0,1.6678716E0,1.0646982E0],"tree_param":{"num_deleted":"0","num_feature":"202","num_nodes":"7","size_leaf_vector":"1"}},{"base_weights":[-1.60192E-2,-3.014004E-1,5.461949E-2,2.2658326E-2,-6.32505E-2],"categories":[],"categories_nodes":[],"categories_segments":[],"categories_sizes":[],"default_left":[0,0,0,0,0],"id":39,"left_children":[1,3,-1,-1,-1],"loss_changes":[1.2214521E0,1.0197628E0,0E0,0E0,0E0],"parents":[2147483647,0,0,1,1],"right_children":[2,4,-1,-1,-1],"split_conditions":[6.872584E-1,2.64E-5,5.461949E-2,2.2658326E-2,-6.32505E-2],"split_indices":[0,1,0,0,0],"split_type":[0,0,0,0,0],"sum_hessian":[5.586847E0,4.013493E0,1.5733538E0,1.6685214E0,2.3449717E0],"tree_param":{"num_deleted":"0","num_feature":"202","num_nodes":"5","size_leaf_vector":"1"}},{"base_weights":[5.4086205E-2,3.5445103E-1,-3.2219613E-1,-1.5478059E-2,5.649553E-1,1.733545E-2,-5.8603246E-2,1.8744355E-2,6.73325E-2],"categories":[],"categories_nodes":[],"categories_segments":[],"categories_sizes":[],"default_left":[0,0,0,0,0,0,0,0,0],"id":40,"left_children":[1,3,5,-1,7,-1,-1,-1,-1],"loss_changes":[8.989344E-1,5.52378E-1,5.730451E-1,0E0,8.131504E-3,0E0,0E0,0E0,0E0],"parents":[2147483647,0,0,1,1,2,2,4,4],"right_children":[2,4,6,-1,8,-1,-1,-1,-1],"split_conditions":[4.4785046E2,-1.3744559E2,4.3259818E2,-1.5478059E-2,-2.2007689E2,1.733545E-2,-5.8603246E-2,1.8744355E-2,6.73325E-2],"split_indices":[168,131,185,0,142,0,0,0,0],"split_type":[0,0,0,0,0,0,0,0,0],"sum_hessian":[5.943178E0,3.337255E0,2.605923E0,1.0534837E0,2.2837713E0,1.0245355E0,1.5813873E0,1.1181841E0,1.1655872E0],"tree_param":{"num_deleted":"0","num_feature":"202","num_nodes":"9","size_leaf_vector":"1"}},{"base_weights":[1.2601938E-2,-5.8336385E-2,2.6710883E-1,-2.7529046E-2,4.8323897E-1,7.0052356E-2,2.9284204E-3],"categories":[],"categories_nodes":[],"categories_segments":[],"categories_sizes":[],"default_left":[0,0,0,0,0,0,0],"id":41,"left_children":[1,-1,3,-1,5,-1,-1],"loss_changes":[1.1417508E0,0E0,7.474158E-1,0E0,3.8493687E-1,0E0,0E0],"parents":[2147483647,0,0,2,2,4,4],"right_children":[2,-1,4,-1,6,-1,-1],"split_conditions":[2.4565929E-1,-5.8336385E-2,-1.0723604E3,-2.7529046E-2,-4.9762622E2,7.0052356E-2,2.9284204E-3],"split_indices":[0,0,135,0,95,0,0],"split_type":[0,0,0,0,0,0,0],"sum_hessian":[5.5001717E0,1.25927E0,4.240902E0,1.1303798E0,3.110522E0,1.7362919E0,1.3742301E0],"tree_param":{"num_deleted":"0","num_feature":"202","num_nodes":"7","size_leaf_vector":"1"}},{"base_weights":[-5.6510075E-4,4.0214676E-1,-2.6977074E-1,5.52503E-2,5.8733076E-3,-5.723649E-2,1.6301049E-2],"categories":[],"categories_nodes":[],"categories_segments":[],"categories_sizes":[],"default_left":[0,0,0,0,0,0,0],"id":42,"left_children":[1,3,5,-1,-1,-1,-1],"loss_changes":[8.402406E-1,1.2791544E-1,7.014575E-1,0E0,0E0,0E0,0E0],"parents":[2147483647,0,0,1,1,2,2],"right_children":[2,4,6,-1,-1,-1,-1],"split_conditions":[-3.8932877E1,-6.420374E2,-3.8819733E2,5.52503E-2,5.8733076E-3,-5.723649E-2,1.6301049E-2],"split_indices":[89,38,110,0,0,0,0],"split_type":[0,0,0,0,0,0,0],"sum_hessian":[5.7497244E0,2.10579E0,3.6439345E0,1.0411079E0,1.064682E0,1.9547064E0,1.6892282E0],"tree_param":{"num_deleted":"0","num_feature":"202","num_nodes":"7","size_leaf_vector":"1"}},{"base_weights":[-1.5874349E-2,-2.458734E-1,5.700938E-2,-5.8257528E-2,2.441961E-2],"categories":[],"categories_nodes":[],"categories_segments":[],"categories_sizes":[],"default_left":[0,0,0,0,0],"id":43,"left_children":[1,3,-1,-1,-1],"loss_changes":[9.7269034E-1,9.8952794E-1,0E0,0E0,0E0],"parents":[2147483647,0,0,1,1],"right_children":[2,4,-1,-1,-1],"split_conditions":[7.291925E-1,-7.6741077E2,5.700938E-2,-5.8257528E-2,2.441961E-2],"split_indices":[0,97,0,0,0],"split_type":[0,0,0,0,0],"sum_hessian":[5.177237E0,4.1347136E0,1.0425234E0,2.3389676E0,1.7957464E0],"tree_param":{"num_deleted":"0","num_feature":"202","num_nodes":"5","size_leaf_vector":"1"}},{"base_weights":[2.6348442E-2,-3.0783126E-1,6.412914E-2,-6.0991175E-2,1.2855726E-2],"categories":[],"categories_nodes":[],"categories_segments":[],"categories_sizes":[],"default_left":[0,0,0,0,0],"id":44,"left_children":[1,3,-1,-1,-1],"loss_changes":[1.3453354E0,6.4457595E-1,0E0,0E0,0E0],"parents":[2147483647,0,0,1,1],"right_children":[2,4,-1,-1,-1],"split_conditions":[6.845935E-1,-8.3026465E2,6.412914E-2,-6.0991175E-2,1.2855726E-2],"split_indices":[0,169,0,0,0],"split_type":[0,0,0,0,0],"sum_hessian":[4.5859747E0,3.294858E0,1.2911165E0,1.712076E0,1.5827821E0],"tree_param":{"num_deleted":"0","num_feature":"202","num_nodes":"5","size_leaf_vector":"1"}},{"base_weights":[3.1714004E-2,3.1094283E-1,-3.2660696E-1,-4.981674E-3,6.009708E-2,-5.0147362E-2,1.0239885E-3],"categories":[],"categories_nodes":[],"categories_segments":[],"categories_sizes":[],"default_left":[0,0,0,0,0,0,0],"id":45,"left_children":[1,3,5,-1,-1,-1,-1],"loss_changes":[6.9138414E-1,4.3020302E-1,1.8594527E-1,0E0,0E0,0E0,0E0],"parents":[2147483647,0,0,1,1,2,2],"right_children":[2,4,6,-1,-1,-1,-1],"split_conditions":[1.9987563E2,1.1686391E2,-6.989345E2,-4.981674E-3,6.009708E-2,-5.0147362E-2,1.0239885E-3],"split_indices":[30,173,148,0,0,0,0],"split_type":[0,0,0,0,0,0,0],"sum_hessian":[4.895124E0,2.8255105E0,2.0696137E0,1.6283168E0,1.1971937E0,1.0406526E0,1.028961E0],"tree_param":{"num_deleted":"0","num_feature":"202","num_nodes":"7","size_leaf_vector":"1"}},{"base_weights":[4.7435075E-2,3.2768553E-1,-2.9463264E-1,-1.1295407E-2,5.2544545E-2,-5.7085242E-2,1.0378029E-2],"categories":[],"categories_nodes":[],"categories_segments":[],"categories_sizes":[],"default_left":[0,0,0,0,0,0,0],"id":46,"left_children":[1,3,5,-1,-1,-1,-1],"loss_changes":[6.80691E-1,3.9247316E-1,4.191743E-1,0E0,0E0,0E0,0E0],"parents":[2147483647,0,0,1,1,2,2],"right_children":[2,4,6,-1,-1,-1,-1],"split_conditions":[4.387375E2,3.519649E-1,-4.403734E1,-1.1295407E-2,5.2544545E-2,-5.7085242E-2,1.0378029E-2],"split_indices":[168,0,119,0,0,0,0],"split_type":[0,0,0,0,0,0,0],"sum_hessian":[5.0934267E0,2.822799E0,2.270628E0,1.0072726E0,1.8155264E0,1.0853432E0,1.1852846E0],"tree_param":{"num_deleted":"0","num_feature":"202","num_nodes":"7","size_leaf_vector":"1"}},{"base_weights":[4.691284E-2,-1.654481E-1,5.5969357E-2,2.807292E-1,-5.7984985E-2,-1.4429164E-2,5.5915445E-2],"categories":[],"categories_nodes":[],"categories_segments":[],"categories_sizes":[],"default_left":[0,0,0,0,0,0,0],"id":47,"left_children":[1,3,-1,5,-1,-1,-1],"loss_changes":[7.662672E-1,1.1143577E0,0E0,4.5368323E-1,0E0,0E0,0E0],"parents":[2147483647,0,0,1,1,3,3],"right_children":[2,4,-1,6,-1,-1,-1],"split_conditions":[7.291925E-1,2.64E-5,5.5969357E-2,2.5493142E-1,-5.7984985E-2,-1.4429164E-2,5.5915445E-2],"split_indices":[0,1,0,0,0,0,0],"split_type":[0,0,0,0,0,0,0],"sum_hessian":[5.1864133E0,4.146535E0,1.0398781E0,2.1520438E0,1.9944911E0,1.0424637E0,1.1095802E0],"tree_param":{"num_deleted":"0","num_feature":"202","num_nodes":"7","size_leaf_vector":"1"}},{"base_weights":[8.113918E-2,-4.272077E-2,2.7729562E-1,4.938536E-1,-2.5174547E-2,6.432976E-2,6.4654513E-3],"categories":[],"categories_nodes":[],"categories_segments":[],"categories_sizes":[],"default_left":[0,0,0,0,0,0,0],"id":48,"left_children":[1,-1,3,5,-1,-1,-1],"loss_changes":[6.954573E-1,0E0,6.721533E-1,1.9768596E-1,0E0,0E0,0E0],"parents":[2147483647,0,0,2,2,3,3],"right_children":[2,-1,4,6,-1,-1,-1],"split_conditions":[2.4613485E-1,-4.272077E-2,6.7E-5,-5.931225E2,-2.5174547E-2,6.432976E-2,6.4654513E-3],"split_indices":[0,0,1,127,0,0,0],"split_type":[0,0,0,0,0,0,0],"sum_hessian":[4.7864065E0,1.0047265E0,3.7816799E0,2.7304907E0,1.0511891E0,1.6552964E0,1.0751942E0],"tree_param":{"num_deleted":"0","num_feature":"202","num_nodes":"7","size_leaf_vector":"1"}},{"base_weights":[-7.829328E-3,2.979231E-1,-3.9459772E-2,-8.983437E-3,4.8238575E-2],"categories":[],"categories_nodes":[],"categories_segments":[],"categories_sizes":[],"default_left":[0,0,0,0,0],"id":49,"left_children":[1,3,-1,-1,-1],"loss_changes":[7.8861845E-1,3.107776E-1,0E0,0E0,0E0],"parents":[2147483647,0,0,1,1],"right_children":[2,4,-1,-1,-1],"split_conditions":[-2.6762957E1,-9.037599E2,-3.9459772E-2,-8.983437E-3,4.8238575E-2],"split_indices":[137,73,0,0,0],"split_type":[0,0,0,0,0],"sum_hessian":[4.6746573E0,2.7390585E0,1.935599E0,1.0483419E0,1.6907166E0],"tree_param":{"num_deleted":"0","num_feature":"202","num_nodes":"5","size_leaf_vector":"1"}},{"base_weights":[-4.808328E-2,-2.8772497E-1,4.601152E-2,1.7691359E-2,-6.596627E-2],"categories":[],"categories_nodes":[],"categories_segments":[],"categories_sizes":[],"default_left":[0,0,0,0,0],"id":50,"left_children":[1,3,-1,-1,-1],"loss_changes":[8.2599336E-1,8.918785E-1,0E0,0E0,0E0],"parents":[2147483647,0,0,1,1],"right_children":[2,4,-1,-1,-1],"split_conditions":[6.872584E-1,9.468451E2,4.601152E-2,1.7691359E-2,-6.596627E-2],"split_indices":[0,200,0,0,0],"split_type":[0,0,0,0,0],"sum_hessian":[4.6953125E0,3.4855363E0,1.2097763E0,1.7827741E0,1.7027622E0],"tree_param":{"num_deleted":"0","num_feature":"202","num_nodes":"5","size_leaf_vector":"1"}},{"base_weights":[5.242314E-2,-1.988265E-1,5.9303697E-2,2.331538E-2,-5.648014E-2],"categories":[],"categories_nodes":[],"categories_segments":[],"categories_sizes":[],"default_left":[0,0,0,0,0],"id":51,"left_children":[1,3,-1,-1,-1],"loss_changes":[9.268483E-1,8.9288163E-1,0E0,0E0,0E0],"parents":[2147483647,0,0,1,1],"right_children":[2,4,-1,-1,-1],"split_conditions":[6.872584E-1,2.64E-5,5.9303697E-2,2.331538E-2,-5.648014E-2],"split_indices":[0,1,0,0,0],"split_type":[0,0,0,0,0],"sum_hessian":[4.955552E0,3.8148334E0,1.1407187E0,1.9160905E0,1.8987428E0],"tree_param":{"num_deleted":"0","num_feature":"202","num_nodes":"5","size_leaf_vector":"1"}},{"base_weights":[-5.102231E-2,-2.554469E-1,4.0090933E-2,-5.2295413E-2,3.0028874E-2],"categories":[],"categories_nodes":[],"categories_segments":[],"categories_sizes":[],"default_left":[0,0,0,0,0],"id":52,"left_children":[1,3,-1,-1,-1],"loss_changes":[6.032852E-1,8.027996E-1,0E0,0E0,0E0],"parents":[2147483647,0,0,1,1],"right_children":[2,4,-1,-1,-1],"split_conditions":[6.872584E-1,-1.2383567E2,4.0090933E-2,-5.2295413E-2,3.0028874E-2],"split_indices":[0,39,0,0,0],"split_type":[0,0,0,0,0],"sum_hessian":[4.4215403E0,3.3437917E0,1.0777484E0,2.2970693E0,1.0467227E0],"tree_param":{"num_deleted":"0","num_feature":"202","num_nodes":"5","size_leaf_vector":"1"}},{"base_weights":[9.5547475E-2,-3.8862158E-2,3.1801027E-1,4.7117077E-2,-5.7373E-3],"categories":[],"categories_nodes":[],"categories_segments":[],"categories_sizes":[],"default_left":[0,0,0,0,0],"id":53,"left_children":[1,-1,3,-1,-1],"loss_changes":[6.814458E-1,0E0,2.6268315E-1,0E0,0E0],"parents":[2147483647,0,0,2,2],"right_children":[2,-1,4,-1,-1],"split_conditions":[-1.06364E3,-3.8862158E-2,-4.9762622E2,4.7117077E-2,-5.7373E-3],"split_indices":[135,0,95,0,0],"split_type":[0,0,0,0,0],"sum_hessian":[4.179299E0,1.0805907E0,3.098708E0,2.0195408E0,1.0791671E0],"tree_param":{"num_deleted":"0","num_feature":"202","num_nodes":"5","size_leaf_vector":"1"}},{"base_weights":[-5.570007E-2,-2.845761E-1,2.7767003E-2,1.5836744E-2,-5.448569E-2],"categories":[],"categories_nodes":[],"categories_segments":[],"categories_sizes":[],"default_left":[0,0,0,0,0],"id":54,"left_children":[1,3,-1,-1,-1],"loss_changes":[4.8605496E-1,5.0789213E-1,0E0,0E0,0E0],"parents":[2147483647,0,0,1,1],"right_children":[2,4,-1,-1,-1],"split_conditions":[-8.2615967E2,-4.2476242E1,2.7767003E-2,1.5836744E-2,-5.448569E-2],"split_indices":[57,89,0,0,0],"split_type":[0,0,0,0,0],"sum_hessian":[4.3346586E0,2.656914E0,1.6777449E0,1.1283131E0,1.5286009E0],"tree_param":{"num_deleted":"0","num_feature":"202","num_nodes":"5","size_leaf_vector":"1"}},{"base_weights":[4.178202E-2,-2.2052747E-1,5.542765E-2,2.7632762E-2,-4.9833085E-2],"categories":[],"categories_nodes":[],"categories_segments":[],"categories_sizes":[],"default_left":[0,0,0,0,0],"id":55,"left_children":[1,3,-1,-1,-1],"loss_changes":[8.089337E-1,7.028127E-1,0E0,0E0,0E0],"parents":[2147483647,0,0,1,1],"right_children":[2,4,-1,-1,-1],"split_conditions":[6.872584E-1,1.4718619E2,5.542765E-2,2.7632762E-2,-4.9833085E-2],"split_indices":[0,154,0,0,0],"split_type":[0,0,0,0,0],"sum_hessian":[4.108156E0,3.0941691E0,1.0139873E0,1.1115175E0,1.9826515E0],"tree_param":{"num_deleted":"0","num_feature":"202","num_nodes":"5","size_leaf_vector":"1"}},{"base_weights":[4.3469826E-3,-2.9329611E-2,3.3217188E-2],"categories":[],"categories_nodes":[],"categories_segments":[],"categories_sizes":[],"default_left":[0,0,0],"id":56,"left_children":[1,-1,-1],"loss_changes":[5.5458635E-1,0E0,0E0],"parents":[2147483647,0,0],"right_children":[2,-1,-1],"split_conditions":[-7.63067E2,-2.9329611E-2,3.3217188E-2],"split_indices":[97,0,0],"split_type":[0,0,0],"sum_hessian":[3.6852415E0,1.9867408E0,1.6985008E0],"tree_param":{"num_deleted":"0","num_feature":"202","num_nodes":"3","size_leaf_vector":"1"}},{"base_weights":[-8.705914E-3,-2.2415309E-1,4.138436E-2,1.0664191E-2,-5.6734104E-2],"categories":[],"categories_nodes":[],"categories_segments":[],"categories_sizes":[],"default_left":[0,0,0,0,0],"id":57,"left_children":[1,3,-1,-1,-1],"loss_changes":[5.727012E-1,5.305253E-1,0E0,0E0,0E0],"parents":[2147483647,0,0,1,1],"right_children":[2,4,-1,-1,-1],"split_conditions":[6.872584E-1,3.1352997E2,4.138436E-2,1.0664191E-2,-5.6734104E-2],"split_indices":[0,154,0,0,0],"split_type":[0,0,0,0,0],"sum_hessian":[4.271883E0,3.1402647E0,1.1316183E0,1.9499708E0,1.1902939E0],"tree_param":{"num_deleted":"0","num_feature":"202","num_nodes":"5","size_leaf_vector":"1"}},{"base_weights":[1.08528085E-1,3.5079268E-1,-3.135847E-2,-2.842026E-3,5.3848315E-2],"categories":[],"categories_nodes":[],"categories_segments":[],"categories_sizes":[],"default_left":[0,0,0,0,0],"id":58,"left_children":[1,3,-1,-1,-1],"loss_changes":[6.198753E-1,2.7436453E-1,0E0,0E0,0E0],"parents":[2147483647,0,0,1,1],"right_children":[2,4,-1,-1,-1],"split_conditions":[-4.9593173E2,1.3028984E3,-3.135847E-2,-2.842026E-3,5.3848315E-2],"split_indices":[22,77,0,0,0],"split_type":[0,0,0,0,0],"sum_hessian":[3.9858918E0,2.6397889E0,1.346103E0,1.1549294E0,1.4848593E0],"tree_param":{"num_deleted":"0","num_feature":"202","num_nodes":"5","size_leaf_vector":"1"}},{"base_weights":[6.256116E-2,-2.5614146E-2,3.0159125E-1,4.671142E-2,-3.829183E-3],"categories":[],"categories_nodes":[],"categories_segments":[],"categories_sizes":[],"default_left":[0,0,0,0,0],"id":59,"left_children":[1,-1,3,-1,-1],"loss_changes":[4.7187388E-1,0E0,2.102535E-1,0E0,0E0],"parents":[2147483647,0,0,2,2],"right_children":[2,-1,4,-1,-1],"split_conditions":[-6.228672E2,-2.5614146E-2,-6.159025E2,4.671142E-2,-3.829183E-3],"split_indices":[179,0,33,0,0],"split_type":[0,0,0,0,0],"sum_hessian":[4.1801825E0,1.76084E0,2.4193425E0,1.3752557E0,1.0440868E0],"tree_param":{"num_deleted":"0","num_feature":"202","num_nodes":"5","size_leaf_vector":"1"}},{"base_weights":[8.602506E-2,-3.273262E-2,3.0695248E-1,5.0631016E-2,-8.926174E-3],"categories":[],"categories_nodes":[],"categories_segments":[],"categories_sizes":[],"default_left":[0,0,0,0,0],"id":60,"left_children":[1,-1,3,-1,-1],"loss_changes":[5.5211467E-1,0E0,3.4053847E-1,0E0,0E0],"parents":[2147483647,0,0,2,2],"right_children":[2,-1,4,-1,-1],"split_conditions":[-3.073448E2,-3.273262E-2,1.3511798E3,5.0631016E-2,-8.926174E-3],"split_indices":[150,0,71,0,0],"split_type":[0,0,0,0,0],"sum_hessian":[3.945664E0,1.2065777E0,2.7390864E0,1.6373655E0,1.1017209E0],"tree_param":{"num_deleted":"0","num_feature":"202","num_nodes":"5","size_leaf_vector":"1"}},{"base_weights":[1.694585E-2,-2.5618395E-1,2.9465253E-2,-4.6508323E-2,8.066498E-3],"categories":[],"categories_nodes":[],"categories_segments":[],"categories_sizes":[],"default_left":[0,0,0,0,0],"id":61,"left_children":[1,3,-1,-1,-1],"loss_changes":[4.524066E-1,2.5144818E-1,0E0,0E0,0E0],"parents":[2147483647,0,0,1,1],"right_children":[2,4,-1,-1,-1],"split_conditions":[-3.7706683E2,-5.0264038E2,2.9465253E-2,-4.6508323E-2,8.066498E-3],"split_indices":[115,84,0,0,0],"split_type":[0,0,0,0,0],"sum_hessian":[3.969301E0,2.0402138E0,1.9290874E0,1.0242993E0,1.0159144E0],"tree_param":{"num_deleted":"0","num_feature":"202","num_nodes":"5","size_leaf_vector":"1"}},{"base_weights":[4.644165E-2,2.6684448E-1,-2.7491016E-2,-2.3987254E-3,4.2644706E-2],"categories":[],"categories_nodes":[],"categories_segments":[],"categories_sizes":[],"default_left":[0,0,0,0,0],"id":62,"left_children":[1,3,-1,-1,-1],"loss_changes":[4.0549573E-1,1.628995E-1,0E0,0E0,0E0],"parents":[2147483647,0,0,1,1],"right_children":[2,4,-1,-1,-1],"split_conditions":[8.7510706E2,-7.225478E2,-2.7491016E-2,-2.3987254E-3,4.2644706E-2],"split_indices":[3,130,0,0,0],"split_type":[0,0,0,0,0],"sum_hessian":[3.6894288E0,2.2890656E0,1.4003631E0,1.1121624E0,1.1769032E0],"tree_param":{"num_deleted":"0","num_feature":"202","num_nodes":"5","size_leaf_vector":"1"}},{"base_weights":[6.379907E-2,3.2233265E-1,-3.37637E-2,-1.8123189E-3,4.689887E-2],"categories":[],"categories_nodes":[],"categories_segments":[],"categories_sizes":[],"default_left":[0,0,0,0,0],"id":63,"left_children":[1,3,-1,-1,-1],"loss_changes":[6.14374E-1,1.8198073E-1,0E0,0E0,0E0],"parents":[2147483647,0,0,1,1],"right_children":[2,4,-1,-1,-1],"split_conditions":[5.5098895E2,3.9396402E2,-3.37637E-2,-1.8123189E-3,4.689887E-2],"split_indices":[185,106,0,0,0],"split_type":[0,0,0,0,0],"sum_hessian":[3.8710706E0,2.4744937E0,1.3965768E0,1.0088696E0,1.4656241E0],"tree_param":{"num_deleted":"0","num_feature":"202","num_nodes":"5","size_leaf_vector":"1"}},{"base_weights":[3.5313245E-2,-2.2283968E-1,3.628598E-2,-4.7124974E-2,1.2318758E-2],"categories":[],"categories_nodes":[],"categories_segments":[],"categories_sizes":[],"default_left":[0,0,0,0,0],"id":64,"left_children":[1,3,-1,-1,-1],"loss_changes":[4.924621E-1,3.4529954E-1,0E0,0E0,0E0],"parents":[2147483647,0,0,1,1],"right_children":[2,4,-1,-1,-1],"split_conditions":[-3.5366858E2,4.6089322E2,3.628598E-2,-4.7124974E-2,1.2318758E-2],"split_indices":[115,184,0,0,0],"split_type":[0,0,0,0,0],"sum_hessian":[3.867746E0,2.3417706E0,1.5259753E0,1.1525084E0,1.1892623E0],"tree_param":{"num_deleted":"0","num_feature":"202","num_nodes":"5","size_leaf_vector":"1"}},{"base_weights":[3.7634034E-2,-2.7189469E-2,2.5752437E-1,4.385869E-2,-8.013739E-3],"categories":[],"categories_nodes":[],"categories_segments":[],"categories_sizes":[],"default_left":[0,0,0,0,0],"id":65,"left_children":[1,-1,3,-1,-1],"loss_changes":[4.0851408E-1,0E0,2.4431503E-1,0E0,0E0],"parents":[2147483647,0,0,2,2],"right_children":[2,-1,4,-1,-1],"split_conditions":[-1.0048751E2,-2.7189469E-2,-2.6762957E1,4.385869E-2,-8.013739E-3],"split_indices":[131,0,137,0,0],"split_type":[0,0,0,0,0],"sum_hessian":[3.973299E0,1.5520518E0,2.4212475E0,1.3815386E0,1.0397087E0],"tree_param":{"num_deleted":"0","num_feature":"202","num_nodes":"5","size_leaf_vector":"1"}},{"base_weights":[6.466538E-2,2.9078054E-1,-2.7517805E-2,4.717265E-2,-3.7329232E-3],"categories":[],"categories_nodes":[],"categories_segments":[],"categories_sizes":[],"default_left":[0,0,0,0,0],"id":66,"left_children":[1,3,-1,-1,-1],"loss_changes":[4.400887E-1,2.1352464E-1,0E0,0E0,0E0],"parents":[2147483647,0,0,1,1],"right_children":[2,4,-1,-1,-1],"split_conditions":[5.5098895E2,1.2405745E3,-2.7517805E-2,4.717265E-2,-3.7329232E-3],"split_indices":[185,87,0,0,0],"split_type":[0,0,0,0,0],"sum_hessian":[3.6857717E0,2.2998998E0,1.3858718E0,1.2002672E0,1.0996326E0],"tree_param":{"num_deleted":"0","num_feature":"202","num_nodes":"5","size_leaf_vector":"1"}},{"base_weights":[-3.199627E-2,2.6222706E-2,-2.6236737E-1,-4.3839493E-4,-3.9118975E-2],"categories":[],"categories_nodes":[],"categories_segments":[],"categories_sizes":[],"default_left":[0,0,0,0,0],"id":67,"left_children":[1,-1,3,-1,-1],"loss_changes":[3.7736818E-1,0E0,9.975366E-2,0E0,0E0],"parents":[2147483647,0,0,2,2],"right_children":[2,-1,4,-1,-1],"split_conditions":[4.378166E2,2.6222706E-2,-6.070118E2,-4.3839493E-4,-3.9118975E-2],"split_indices":[192,0,33,0,0],"split_type":[0,0,0,0,0],"sum_hessian":[3.552462E0,1.499308E0,2.053154E0,1.0281607E0,1.0249933E0],"tree_param":{"num_deleted":"0","num_feature":"202","num_nodes":"5","size_leaf_vector":"1"}},{"base_weights":[-4.0830025E-3,-3.501643E-2,2.1533398E-1,-7.905724E-3,3.8956746E-2],"categories":[],"categories_nodes":[],"categories_segments":[],"categories_sizes":[],"default_left":[0,0,0,0,0],"id":68,"left_children":[1,-1,3,-1,-1],"loss_changes":[3.9630345E-1,0E0,1.9521517E-1,0E0,0E0],"parents":[2147483647,0,0,2,2],"right_children":[2,-1,4,-1,-1],"split_conditions":[-2.893224E2,-3.501643E-2,-1.0322366E3,-7.905724E-3,3.8956746E-2],"split_indices":[150,0,21,0,0],"split_type":[0,0,0,0,0],"sum_hessian":[3.2259367E0,1.0204769E0,2.2054596E0,1.0230812E0,1.1823784E0],"tree_param":{"num_deleted":"0","num_feature":"202","num_nodes":"5","size_leaf_vector":"1"}},{"base_weights":[7.93812E-2,2.790708E-1,-2.5260298E-2,-5.3367293E-3,4.58729E-2],"categories":[],"categories_nodes":[],"categories_segments":[],"categories_sizes":[],"default_left":[0,0,0,0,0],"id":69,"left_children":[1,3,-1,-1,-1],"loss_changes":[3.6962366E-1,2.2113094E-1,0E0,0E0,0E0],"parents":[2147483647,0,0,1,1],"right_children":[2,4,-1,-1,-1],"split_conditions":[1.3514226E3,-2.5542532E2,-2.5260298E-2,-5.3367293E-3,4.58729E-2],"split_indices":[71,125,0,0,0],"split_type":[0,0,0,0,0],"sum_hessian":[3.5121818E0,2.2925754E0,1.2196065E0,1.0509174E0,1.241658E0],"tree_param":{"num_deleted":"0","num_feature":"202","num_nodes":"5","size_leaf_vector":"1"}},{"base_weights":[5.2776456E-2,-2.4822684E-2,2.7089477E-1,4.2944223E-2,-2.486022E-3],"categories":[],"categories_nodes":[],"categories_segments":[],"categories_sizes":[],"default_left":[0,0,0,0,0],"id":70,"left_children":[1,-1,3,-1,-1],"loss_changes":[3.708096E-1,0E0,1.5881184E-1,0E0,0E0],"parents":[2147483647,0,0,2,2],"right_children":[2,-1,4,-1,-1],"split_conditions":[-6.061617E2,-2.4822684E-2,4.592071E2,4.2944223E-2,-2.486022E-3],"split_indices":[48,0,117,0,0],"split_type":[0,0,0,0,0],"sum_hessian":[3.623705E0,1.4645661E0,2.159139E0,1.1113497E0,1.0477892E0],"tree_param":{"num_deleted":"0","num_feature":"202","num_nodes":"5","size_leaf_vector":"1"}},{"base_weights":[-3.6678962E-2,2.543609E-1,-3.9336577E-2,4.456334E-2,-7.1757915E-3],"categories":[],"categories_nodes":[],"categories_segments":[],"categories_sizes":[],"default_left":[0,0,0,0,0],"id":71,"left_children":[1,3,-1,-1,-1],"loss_changes":[5.710042E-1,2.2569165E-1,0E0,0E0,0E0],"parents":[2147483647,0,0,1,1],"right_children":[2,4,-1,-1,-1],"split_conditions":[4.4785046E2,-1.1221122E2,-3.9336577E-2,4.456334E-2,-7.1757915E-3],"split_indices":[168,88,0,0,0],"split_type":[0,0,0,0,0],"sum_hessian":[3.536624E0,2.105507E0,1.431117E0,1.0961354E0,1.0093715E0],"tree_param":{"num_deleted":"0","num_feature":"202","num_nodes":"5","size_leaf_vector":"1"}},{"base_weights":[1.144899E-1,-2.2994438E-2,3.553742E-2],"categories":[],"categories_nodes":[],"categories_segments":[],"categories_sizes":[],"default_left":[0,0,0],"id":72,"left_children":[1,-1,-1],"loss_changes":[4.4818717E-1,0E0,0E0],"parents":[2147483647,0,0],"right_children":[2,-1,-1],"split_conditions":[-9.943367E1,-2.2994438E-2,3.553742E-2],"split_indices":[131,0,0],"split_type":[0,0,0],"sum_hessian":[3.4169707E0,1.4249241E0,1.9920465E0],"tree_param":{"num_deleted":"0","num_feature":"202","num_nodes":"3","size_leaf_vector":"1"}},{"base_weights":[1.2030724E-1,-1.9705404E-2,2.9916236E-1,1.1935337E-3,4.5583155E-2],"categories":[],"categories_nodes":[],"categories_segments":[],"categories_sizes":[],"default_left":[0,0,0,0,0],"id":73,"left_children":[1,-1,3,-1,-1],"loss_changes":[3.095191E-1,0E0,1.3947576E-1,0E0,0E0],"parents":[2147483647,0,0,2,2],"right_children":[2,-1,4,-1,-1],"split_conditions":[-6.228672E2,-1.9705404E-2,-7.0948785E2,1.1935337E-3,4.5583155E-2],"split_indices":[179,0,130,0,0],"split_type":[0,0,0,0,0],"sum_hessian":[3.4143858E0,1.1939982E0,2.2203877E0,1.1634947E0,1.056893E0],"tree_param":{"num_deleted":"0","num_feature":"202","num_nodes":"5","size_leaf_vector":"1"}},{"base_weights":[2.3626838E-2,-2.3971675E-2,2.4426479E-2],"categories":[],"categories_nodes":[],"categories_segments":[],"categories_sizes":[],"default_left":[0,0,0],"id":74,"left_children":[1,-1,-1],"loss_changes":[2.97165E-1,0E0,0E0],"parents":[2147483647,0,0],"right_children":[2,-1,-1],"split_conditions":[-6.084919E2,-2.3971675E-2,2.4426479E-2],"split_indices":[179,0,0],"split_type":[0,0,0],"sum_hessian":[3.1066422E0,1.3768384E0,1.7298039E0],"tree_param":{"num_deleted":"0","num_feature":"202","num_nodes":"3","size_leaf_vector":"1"}},{"base_weights":[-8.136304E-3,2.2958294E-1,-2.8985495E-2,-1.0250937E-3,3.6808457E-2],"categories":[],"categories_nodes":[],"categories_segments":[],"categories_sizes":[],"default_left":[0,0,0,0,0],"id":75,"left_children":[1,3,-1,-1,-1],"loss_changes":[3.8748184E-1,1.0864392E-1,0E0,0E0,0E0],"parents":[2147483647,0,0,1,1],"right_children":[2,4,-1,-1,-1],"split_conditions":[-4.8159195E2,-5.905758E2,-2.8985495E-2,-1.0250937E-3,3.6808457E-2],"split_indices":[95,5,0,0,0],"split_type":[0,0,0,0,0],"sum_hessian":[3.7922409E0,2.1571023E0,1.6351386E0,1.128662E0,1.0284402E0],"tree_param":{"num_deleted":"0","num_feature":"202","num_nodes":"5","size_leaf_vector":"1"}},{"base_weights":[1.3831687E-2,2.2891282E-1,-3.3133E-2,4.1706663E-2,-7.9477765E-3],"categories":[],"categories_nodes":[],"categories_segments":[],"categories_sizes":[],"default_left":[0,0,0,0,0],"id":76,"left_children":[1,3,-1,-1,-1],"loss_changes":[3.8399765E-1,2.1585222E-1,0E0,0E0,0E0],"parents":[2147483647,0,0,1,1],"right_children":[2,4,-1,-1,-1],"split_conditions":[-5.372822E2,-4.929504E2,-3.3133E-2,4.1706663E-2,-7.9477765E-3],"split_indices":[22,139,0,0,0],"split_type":[0,0,0,0,0],"sum_hessian":[3.1508791E0,2.148732E0,1.0021472E0,1.1156559E0,1.033076E0],"tree_param":{"num_deleted":"0","num_feature":"202","num_nodes":"5","size_leaf_vector":"1"}},{"base_weights":[3.1701624E-2,-2.8993491E-2,2.2214928E-1,3.820733E-2,-8.941247E-3],"categories":[],"categories_nodes":[],"categories_segments":[],"categories_sizes":[],"default_left":[0,0,0,0,0],"id":77,"left_children":[1,-1,3,-1,-1],"loss_changes":[3.564133E-1,0E0,2.1155977E-1,0E0,0E0],"parents":[2147483647,0,0,2,2],"right_children":[2,-1,4,-1,-1],"split_conditions":[-3.1065027E2,-2.8993491E-2,5.5098895E2,3.820733E-2,-8.941247E-3],"split_indices":[150,0,185,0,0],"split_type":[0,0,0,0,0],"sum_hessian":[3.7670372E0,1.2067081E0,2.560329E0,1.5423352E0,1.0179938E0],"tree_param":{"num_deleted":"0","num_feature":"202","num_nodes":"5","size_leaf_vector":"1"}},{"base_weights":[3.0425891E-2,2.657729E-1,-3.215703E-2,4.389933E-2,-2.9948202E-3],"categories":[],"categories_nodes":[],"categories_segments":[],"categories_sizes":[],"default_left":[0,0,0,0,0],"id":78,"left_children":[1,3,-1,-1,-1],"loss_changes":[4.385722E-1,1.7204691E-1,0E0,0E0,0E0],"parents":[2147483647,0,0,1,1],"right_children":[2,4,-1,-1,-1],"split_conditions":[-5.73194E2,2.6319595E2,-3.215703E-2,4.389933E-2,-2.9948202E-3],"split_indices":[33,158,0,0,0],"split_type":[0,0,0,0,0],"sum_hessian":[3.2624605E0,2.1020026E0,1.1604578E0,1.0200298E0,1.0819728E0],"tree_param":{"num_deleted":"0","num_feature":"202","num_nodes":"5","size_leaf_vector":"1"}},{"base_weights":[4.3573335E-2,-2.7105412E-2,2.2113875E-1,-9.40259E-3,4.099075E-2],"categories":[],"categories_nodes":[],"categories_segments":[],"categories_sizes":[],"default_left":[0,0,0,0,0],"id":79,"left_children":[1,-1,3,-1,-1],"loss_changes":[3.0960834E-1,0E0,2.412612E-1,0E0,0E0],"parents":[2147483647,0,0,2,2],"right_children":[2,-1,4,-1,-1],"split_conditions":[2.5493142E-1,-2.7105412E-2,-3.6787552E2,-9.40259E-3,4.099075E-2],"split_indices":[0,0,96,0,0],"split_type":[0,0,0,0,0],"sum_hessian":[3.4689705E0,1.061536E0,2.4074345E0,1.0898092E0,1.3176253E0],"tree_param":{"num_deleted":"0","num_feature":"202","num_nodes":"5","size_leaf_vector":"1"}},{"base_weights":[-9.46303E-3,-2.800411E-2,2.3123205E-2],"categories":[],"categories_nodes":[],"categories_segments":[],"categories_sizes":[],"default_left":[0,0,0],"id":80,"left_children":[1,-1,-1],"loss_changes":[3.402384E-1,0E0,0E0],"parents":[2147483647,0,0],"right_children":[2,-1,-1],"split_conditions":[-1.0048751E2,-2.800411E-2,2.3123205E-2],"split_indices":[131,0,0],"split_type":[0,0,0],"sum_hessian":[3.2299612E0,1.4436309E0,1.7863302E0],"tree_param":{"num_deleted":"0","num_feature":"202","num_nodes":"3","size_leaf_vector":"1"}},{"base_weights":[-1.0879991E-1,2.5078436E-2,-3.3948936E-2],"categories":[],"categories_nodes":[],"categories_segments":[],"categories_sizes":[],"default_left":[0,0,0],"id":81,"left_children":[1,-1,-1],"loss_changes":[4.1834822E-1,0E0,0E0],"parents":[2147483647,0,0],"right_children":[2,-1,-1],"split_conditions":[-9.215259E2,2.5078436E-2,-3.3948936E-2],"split_indices":[24,0,0],"split_type":[0,0,0],"sum_hessian":[3.0168822E0,1.1450076E0,1.8718745E0],"tree_param":{"num_deleted":"0","num_feature":"202","num_nodes":"3","size_leaf_vector":"1"}},{"base_weights":[2.6193243E-2,2.2889924E-1,-2.7648052E-2,3.5223633E-2,-3.4666108E-4],"categories":[],"categories_nodes":[],"categories_segments":[],"categories_sizes":[],"default_left":[0,0,0,0,0],"id":82,"left_children":[1,3,-1,-1,-1],"loss_changes":[3.279119E-1,9.0930834E-2,0E0,0E0,0E0],"parents":[2147483647,0,0,1,1],"right_children":[2,4,-1,-1,-1],"split_conditions":[5.5098895E2,-3.8847913E2,-2.7648052E-2,3.5223633E-2,-3.4666108E-4],"split_indices":[185,104,0,0,0],"split_type":[0,0,0,0,0],"sum_hessian":[3.3131113E0,2.1302125E0,1.1828985E0,1.0545828E0,1.0756298E0],"tree_param":{"num_deleted":"0","num_feature":"202","num_nodes":"5","size_leaf_vector":"1"}},{"base_weights":[-1.0379457E-2,-2.2770107E-1,2.9810557E-2,1.1580857E-2,-4.544511E-2],"categories":[],"categories_nodes":[],"categories_segments":[],"categories_sizes":[],"default_left":[0,0,0,0,0],"id":83,"left_children":[1,3,-1,-1,-1],"loss_changes":[3.496449E-1,2.888534E-1,0E0,0E0,0E0],"parents":[2147483647,0,0,1,1],"right_children":[2,4,-1,-1,-1],"split_conditions":[5.5218774E-1,1.2200841E3,2.9810557E-2,1.1580857E-2,-4.544511E-2],"split_indices":[0,19,0,0,0],"split_type":[0,0,0,0,0],"sum_hessian":[3.2029235E0,2.0327585E0,1.1701651E0,1.002823E0,1.0299355E0],"tree_param":{"num_deleted":"0","num_feature":"202","num_nodes":"5","size_leaf_vector":"1"}},{"base_weights":[1.9485695E-2,-1.756128E-1,2.760436E-2,1.1371336E-2,-3.755165E-2],"categories":[],"categories_nodes":[],"categories_segments":[],"categories_sizes":[],"default_left":[0,0,0,0,0],"id":84,"left_children":[1,3,-1,-1,-1],"loss_changes":[2.628373E-1,2.1874937E-1,0E0,0E0,0E0],"parents":[2147483647,0,0,1,1],"right_children":[2,4,-1,-1,-1],"split_conditions":[1.21360306E2,1.1814808E3,2.760436E-2,1.1371336E-2,-3.755165E-2],"split_indices":[173,60,0,0,0],"split_type":[0,0,0,0,0],"sum_hessian":[3.28258E0,2.0438478E0,1.2387322E0,1.0113099E0,1.0325378E0],"tree_param":{"num_deleted":"0","num_feature":"202","num_nodes":"5","size_leaf_vector":"1"}},{"base_weights":[-1.0084296E-1,-3.0146599E-2,1.9497657E-2],"categories":[],"categories_nodes":[],"categories_segments":[],"categories_sizes":[],"default_left":[0,0,0],"id":85,"left_children":[1,-1,-1],"loss_changes":[2.9140848E-1,0E0,0E0],"parents":[2147483647,0,0],"right_children":[2,-1,-1],"split_conditions":[9.062007E2,-3.0146599E-2,1.9497657E-2],"split_indices":[4,0,0],"split_type":[0,0,0],"sum_hessian":[2.919742E0,1.7284383E0,1.1913038E0],"tree_param":{"num_deleted":"0","num_feature":"202","num_nodes":"3","size_leaf_vector":"1"}},{"base_weights":[3.1541593E-3,-2.7763179E-2,1.8673877E-1,4.0716164E-2,-1.2206598E-2],"categories":[],"categories_nodes":[],"categories_segments":[],"categories_sizes":[],"default_left":[0,0,0,0,0],"id":86,"left_children":[1,-1,3,-1,-1],"loss_changes":[2.7462342E-1,0E0,2.6827037E-1,0E0,0E0],"parents":[2147483647,0,0,2,2],"right_children":[2,-1,4,-1,-1],"split_conditions":[-4.6183878E2,-2.7763179E-2,-8.2715234E2,4.0716164E-2,-1.2206598E-2],"split_indices":[59,0,50,0,0],"split_type":[0,0,0,0,0],"sum_hessian":[3.3217757E0,1.1107072E0,2.2110686E0,1.1043106E0,1.106758E0],"tree_param":{"num_deleted":"0","num_feature":"202","num_nodes":"5","size_leaf_vector":"1"}},{"base_weights":[1.0823435E-1,-1.696994E-2,3.0244548E-2],"categories":[],"categories_nodes":[],"categories_segments":[],"categories_sizes":[],"default_left":[0,0,0],"id":87,"left_children":[1,-1,-1],"loss_changes":[2.901301E-1,0E0,0E0],"parents":[2147483647,0,0],"right_children":[2,-1,-1],"split_conditions":[-6.228672E2,-1.696994E-2,3.0244548E-2],"split_indices":[179,0,0],"split_type":[0,0,0],"sum_hessian":[3.4241376E0,1.4603935E0,1.9637442E0],"tree_param":{"num_deleted":"0","num_feature":"202","num_nodes":"3","size_leaf_vector":"1"}},{"base_weights":[-8.9956354E-4,-2.9087855E-2,2.3321183E-2],"categories":[],"categories_nodes":[],"categories_segments":[],"categories_sizes":[],"default_left":[0,0,0],"id":88,"left_children":[1,-1,-1],"loss_changes":[3.391889E-1,0E0,0E0],"parents":[2147483647,0,0],"right_children":[2,-1,-1],"split_conditions":[-1.0048751E2,-2.9087855E-2,2.3321183E-2],"split_indices":[131,0,0],"split_type":[0,0,0],"sum_hessian":[2.9970996E0,1.2304902E0,1.7666094E0],"tree_param":{"num_deleted":"0","num_feature":"202","num_nodes":"3","size_leaf_vector":"1"}},{"base_weights":[6.0142E-2,2.4737034E-2,-2.0907803E-2],"categories":[],"categories_nodes":[],"categories_segments":[],"categories_sizes":[],"default_left":[0,0,0],"id":89,"left_children":[1,-1,-1],"loss_changes":[2.5522047E-1,0E0,0E0],"parents":[2147483647,0,0],"right_children":[2,-1,-1],"split_conditions":[-3.833602E2,2.4737034E-2,-2.0907803E-2],"split_indices":[104,0,0],"split_type":[0,0,0],"sum_hessian":[3.0372632E0,1.8392919E0,1.1979712E0],"tree_param":{"num_deleted":"0","num_feature":"202","num_nodes":"3","size_leaf_vector":"1"}},{"base_weights":[7.929142E-2,-1.8176103E-2,3.373681E-2],"categories":[],"categories_nodes":[],"categories_segments":[],"categories_sizes":[],"default_left":[0,0,0],"id":90,"left_children":[1,-1,-1],"loss_changes":[3.1226534E-1,0E0,0E0],"parents":[2147483647,0,0],"right_children":[2,-1,-1],"split_conditions":[-2.406784E2,-1.8176103E-2,3.373681E-2],"split_indices":[142,0,0],"split_type":[0,0,0],"sum_hessian":[2.7247915E0,1.5015934E0,1.2231983E0],"tree_param":{"num_deleted":"0","num_feature":"202","num_nodes":"3","size_leaf_vector":"1"}},{"base_weights":[4.8361253E-2,2.6964257E-2,-2.5774643E-2],"categories":[],"categories_nodes":[],"categories_segments":[],"categories_sizes":[],"default_left":[0,0,0],"id":91,"left_children":[1,-1,-1],"loss_changes":[3.5473093E-1,0E0,0E0],"parents":[2147483647,0,0],"right_children":[2,-1,-1],"split_conditions":[4.4785046E2,2.6964257E-2,-2.5774643E-2],"split_indices":[168,0,0],"split_type":[0,0,0],"sum_hessian":[3.2109346E0,1.9328368E0,1.278098E0],"tree_param":{"num_deleted":"0","num_feature":"202","num_nodes":"3","size_leaf_vector":"1"}},{"base_weights":[9.028533E-3,2.1287186E-2,-2.7736122E-2],"categories":[],"categories_nodes":[],"categories_segments":[],"categories_sizes":[],"default_left":[0,0,0],"id":92,"left_children":[1,-1,-1],"loss_changes":[2.9205492E-1,0E0,0E0],"parents":[2147483647,0,0],"right_children":[2,-1,-1],"split_conditions":[8.813296E2,2.1287186E-2,-2.7736122E-2],"split_indices":[3,0,0],"split_type":[0,0,0],"sum_hessian":[2.9914002E0,1.8975145E0,1.0938859E0],"tree_param":{"num_deleted":"0","num_feature":"202","num_nodes":"3","size_leaf_vector":"1"}},{"base_weights":[1.19863E-1,3.0707246E-2,-1.6601602E-2],"categories":[],"categories_nodes":[],"categories_segments":[],"categories_sizes":[],"default_left":[0,0,0],"id":93,"left_children":[1,-1,-1],"loss_changes":[2.512433E-1,0E0,0E0],"parents":[2147483647,0,0],"right_children":[2,-1,-1],"split_conditions":[1.2405745E3,3.0707246E-2,-1.6601602E-2],"split_indices":[87,0,0],"split_type":[0,0,0],"sum_hessian":[2.7419114E0,1.6120907E0,1.1298207E0],"tree_param":{"num_deleted":"0","num_feature":"202","num_nodes":"3","size_leaf_vector":"1"}},{"base_weights":[-7.74314E-2,-3.8903486E-2,1.6704326E-2],"categories":[],"categories_nodes":[],"categories_segments":[],"categories_sizes":[],"default_left":[0,0,0],"id":94,"left_children":[1,-1,-1],"loss_changes":[3.6413625E-1,0E0,0E0],"parents":[2147483647,0,0],"right_children":[2,-1,-1],"split_conditions":[-3.073448E2,-3.8903486E-2,1.6704326E-2],"split_indices":[150,0,0],"split_type":[0,0,0],"sum_hessian":[2.9269357E0,1.0268366E0,1.900099E0],"tree_param":{"num_deleted":"0","num_feature":"202","num_nodes":"3","size_leaf_vector":"1"}},{"base_weights":[5.349177E-2,2.6774442E-2,-2.0567233E-2],"categories":[],"categories_nodes":[],"categories_segments":[],"categories_sizes":[],"default_left":[0,0,0],"id":95,"left_children":[1,-1,-1],"loss_changes":[2.8180504E-1,0E0,0E0],"parents":[2147483647,0,0],"right_children":[2,-1,-1],"split_conditions":[8.3435913E2,2.6774442E-2,-2.0567233E-2],"split_indices":[159,0,0],"split_type":[0,0,0],"sum_hessian":[3.083402E0,1.6698326E0,1.4135693E0],"tree_param":{"num_deleted":"0","num_feature":"202","num_nodes":"3","size_leaf_vector":"1"}},{"base_weights":[-4.318952E-2,-3.0182917E-2,1.5481764E-2],"categories":[],"categories_nodes":[],"categories_segments":[],"categories_sizes":[],"default_left":[0,0,0],"id":96,"left_children":[1,-1,-1],"loss_changes":[2.4372834E-1,0E0,0E0],"parents":[2147483647,0,0],"right_children":[2,-1,-1],"split_conditions":[-6.2535583E2,-3.0182917E-2,1.5481764E-2],"split_indices":[179,0,0],"split_type":[0,0,0],"sum_hessian":[2.8467143E0,1.0070097E0,1.8397045E0],"tree_param":{"num_deleted":"0","num_feature":"202","num_nodes":"3","size_leaf_vector":"1"}},{"base_weights":[-4.0226884E-2,2.1283643E-2,-3.8422104E-2],"categories":[],"categories_nodes":[],"categories_segments":[],"categories_sizes":[],"default_left":[0,0,0],"id":97,"left_children":[1,-1,-1],"loss_changes":[4.3410027E-1,0E0,0E0],"parents":[2147483647,0,0],"right_children":[2,-1,-1],"split_conditions":[-4.9593173E2,2.1283643E-2,-3.8422104E-2],"split_indices":[22,0,0],"split_type":[0,0,0],"sum_hessian":[3.0472686E0,1.9753549E0,1.0719138E0],"tree_param":{"num_deleted":"0","num_feature":"202","num_nodes":"3","size_leaf_vector":"1"}},{"base_weights":[-7.216214E-2,1.6661394E-2,-3.506382E-2],"categories":[],"categories_nodes":[],"categories_segments":[],"categories_sizes":[],"default_left":[0,0,0],"id":98,"left_children":[1,-1,-1],"loss_changes":[3.0249783E-1,0E0,0E0],"parents":[2147483647,0,0],"right_children":[2,-1,-1],"split_conditions":[-2.98963E1,1.6661394E-2,-3.506382E-2],"split_indices":[137,0,0],"split_type":[0,0,0],"sum_hessian":[2.670688E0,1.6540962E0,1.0165917E0],"tree_param":{"num_deleted":"0","num_feature":"202","num_nodes":"3","size_leaf_vector":"1"}},{"base_weights":[-5.214818E-2,1.6630895E-2,-3.4574807E-2],"categories":[],"categories_nodes":[],"categories_segments":[],"categories_sizes":[],"default_left":[0,0,0],"id":99,"left_children":[1,-1,-1],"loss_changes":[3.1209052E-1,0E0,0E0],"parents":[2147483647,0,0],"right_children":[2,-1,-1],"split_conditions":[-5.372822E2,1.6630895E-2,-3.4574807E-2],"split_indices":[22,0,0],"split_type":[0,0,0],"sum_hessian":[2.9693406E0,1.9511284E0,1.0182121E0],"tree_param":{"num_deleted":"0","num_feature":"202","num_nodes":"3","size_leaf_vector":"1"}}]},"name":"gbtree"},"learner_model_param":{"base_score":"3.0838245E-1","boost_from_average":"1","num_class":"0","num_feature":"202","num_target":"1"},"objective":{"name":"binary:logistic","reg_loss_param":{"scale_pos_weight":"1"}}},"version":[2,1,4]}